2949 100
오후 0.13407305 -0.7171811 0.77740824 0.50943124 -0.75291467 0.6075811 0.48284596 0.31258848 -0.5883096 0.2620562 0.48242363 -0.1653791 -0.2392045 -0.51245975 -0.46328828 -0.80254525 0.17610888 -0.4866109 -0.38919595 0.35535237 -0.2137957 0.18594517 0.48869288 0.09941805 -0.48891416 0.5768284 -0.2608053 0.34378648 0.57245314 1.1042076 -0.48382387 -0.5938674 0.032728583 0.01838329 0.015166533 0.49708718 -0.4824475 0.20986688 -0.064962015 -0.20054007 -0.29986483 0.3991994 0.6076177 -0.678783 1.0965214 0.035083085 -0.6182765 0.29469895 0.6568752 1.2253424 0.59856457 0.25548124 -0.2774187 0.030091336 0.57074666 0.4339971 0.2313391 0.3044052 0.10323942 -0.1439969 0.31099206 -1.0168443 -0.3552467 1.4794239 0.60439384 -0.8868799 -0.017844392 0.1900868 -0.3449205 0.6743607 0.7001761 0.35902372 -0.047839288 0.47106248 -0.07511964 -0.31182465 0.003278145 0.22820024 -0.13179648 -0.4672874 -0.31273896 -0.7226525 -0.30238813 0.40159944 0.28065768 0.17046541 0.22750564 0.36193702 -0.10334465 -0.7404066 -0.8517951 0.059437446 -0.20520355 -1.4080167 -0.20612182 0.2945599 0.4977237 0.35636353 -0.60944563 -0.6374211
을 -0.2080298 -0.25421834 -1.0242099 1.0095745 0.02176018 -0.15994462 0.18309003 -0.058653284 0.27210194 -0.376444 0.10684917 0.15535039 -0.27791953 0.19379961 0.075219505 -0.4844454 -0.20284273 0.22841026 -0.9942745 0.5656328 -0.18500653 -0.10598779 -0.8130602 -0.5338371 0.6330838 -0.15377052 0.40331802 -0.031203564 0.059328247 -0.1642958 0.013907744 0.5725161 -0.3125246 -0.15692921 0.17226048 0.122522675 -0.335966 1.2397293 0.20566496 -0.53922707 0.14334941 0.6976689 0.002617203 0.59847486 0.47236854 -0.30887336 -0.08803141 0.022202304 0.0072386144 -0.38043448 0.82887113 0.11527574 0.5019481 0.6146001 0.41241264 0.029356228 -0.16872092 -0.35455462 0.54588485 0.6407483 -0.0117569575 0.34222627 0.18017116 0.14853084 0.2950752 -0.7679211 -0.80567235 -0.21554726 -0.041633334 -0.04962428 0.18503924 -0.730847 1.1846573 -0.916211 0.54194826 -0.0061071073 0.44534975 -0.3096187 -0.32729268 0.4213072 0.8369192 0.07946513 -0.052012935 -0.2277541 0.6181939 -1.3189551 -0.17481041 -0.45023042 -0.15735836 0.21321498 -0.11774928 -0.30304694 0.27780256 -0.39128238 -0.41275415 0.22579627 0.21218173 -0.5254896 -0.5590049 0.2380304
있다 -0.21534206 0.0045769806 -0.93523854 1.3049184 0.3057059 -0.41010717 0.0978444 -0.3312717 0.6336815 -0.8925367 0.08155711 -0.0076175584 -0.22549805 -0.076388806 -0.3680683 -0.25772125 0.11418214 0.12989786 -0.9639312 0.837094 -0.5896168 -0.30227664 -0.952245 -0.3537445 0.66004467 0.5920006 0.78430057 0.029604752 0.1855029 -0.47629964 0.26536283 0.4905352 0.38198856 -0.23390117 0.8233368 -0.072464906 -0.627272 1.0727235 -0.12365973 0.18171057 0.0083256895 0.33182153 0.29173362 0.35171947 0.64372367 -0.11828136 0.6652236 -0.13600452 0.06303848 -0.50961274 0.18891414 -0.010278966 0.36449295 0.45400336 0.46716565 -0.14743064 0.47969788 -0.26706004 0.46048748 0.36719537 0.32118174 0.36131507 -0.17720261 -0.362407 0.5486967 -0.19534716 -1.201565 -0.03709486 0.22287883 -0.69401294 0.341253 -0.47380662 1.0200716 -0.74365455 0.55519617 0.18138696 0.4889028 0.10108524 -0.5056711 -0.12570919 1.1832325 0.03879157 -0.14216436 -0.03334384 0.7801292 -1.0584049 0.09422497 -1.0398301 -0.22249101 0.4686388 0.2550812 -0.6865401 -0.03996291 -0.42061 -0.18690227 -0.047631547 0.27631676 -0.3962581 -0.6376254 0.47081032
님 0.034484193 -1.0299829 -0.31561086 1.31062 -0.70687777 0.42917314 0.4330133 0.01189305 -0.16003041 0.26695335 -0.06958416 0.3881529 -0.45129725 0.72504765 0.48389766 -1.1161258 -1.0621775 -0.08578138 -1.5746092 -0.13885257 0.385232 0.1488551 0.045831744 -0.7303742 0.31806 -0.4184142 0.3171429 -0.1031777 0.9230071 1.2509246 -1.0422213 0.105615035 -1.0399095 0.16611335 -0.5059547 0.5592508 -0.1608724 1.6126443 0.70964515 -2.1659732 0.35334626 0.7283688 0.6411489 -0.20001455 1.1214362 -0.75689495 -0.86027217 0.6451344 -0.21123646 0.82938576 2.0426054 0.35043788 1.0014313 0.4747648 0.8589814 0.23471528 -0.6262107 0.33981356 0.7078225 0.8672434 -0.2858424 -0.95209444 0.17527601 1.7219355 0.4134309 -1.748524 -0.45877123 -0.5420068 -0.8105465 0.845998 0.59451747 -0.99380034 1.5175036 -0.7168999 0.03356861 -0.25916457 0.7134055 -0.6920964 0.05166169 0.6402948 0.22403125 -0.06969126 -0.2023304 -0.20055132 0.6980263 -0.8731104 -0.43858787 0.39575222 -0.17850755 -0.5709567 -1.4797485 -0.2688268 0.6356146 -1.392638 -0.6523412 0.9535857 -0.09972087 -0.10505609 -0.6852361 0.05395905
학부 0.18238774 -0.66345507 -0.2994617 0.8808625 0.6237688 0.4111918 0.26825672 -0.4912874 -0.46681616 -0.9986093 0.0015990543 0.46338493 -0.812245 -0.4895852 -0.6528323 -0.6420488 0.5096897 -0.6798633 -0.10183342 0.11714985 -0.22707666 -0.24663265 -0.29777402 -0.043919988 0.24865758 1.1960965 -0.33399102 0.6462257 0.48918152 0.48317564 -0.05590666 -0.02486674 0.22342262 0.61323047 1.515756 0.17125094 -0.7840082 0.58624053 0.493115 0.18590364 -0.6273819 0.80830294 0.3526858 -0.25939518 0.5122054 -0.26856786 0.07377108 0.73259485 0.5219769 0.87518513 0.5299452 0.49974594 -0.0016959313 0.68997973 0.7139689 0.3578977 -0.6365029 0.22644003 1.066994 -0.1362325 -0.06377191 -0.33233905 -0.2818253 0.61022246 1.0721773 -0.39673278 -0.62322515 0.14596635 -0.6388135 -0.30514723 0.998143 0.45507556 0.8688948 -0.55911684 0.19271131 -0.14305522 0.02355556 -0.17076463 0.44224137 -0.41511452 0.28029048 -0.14461748 -0.67431384 0.61832935 0.7804689 -0.32967287 0.40132985 -0.39956692 -0.7865393 -0.39421833 -0.3549911 0.63376594 0.26119277 -0.8862167 -0.50892544 -0.21460181 0.26161423 0.14138366 -0.98717785 -0.08345717
이다 0.023790324 -0.25620708 -0.22914681 0.49494195 -0.12746987 0.10783724 0.038209207 -0.19516845 -0.35378355 -0.24971385 0.3591718 -0.0885629 -0.19627087 -0.46665308 -0.4824187 -0.4264243 0.43882313 -0.1624239 -0.4012403 0.58854914 -0.33007807 0.018866401 -0.17204215 -0.15021642 0.1951153 0.49955276 -0.019036634 0.18414952 -0.2084246 0.18657583 0.111090325 0.14198484 0.14468932 -0.07134999 0.5407293 -0.06235572 -0.49078205 0.3952194 -0.30325633 0.38128656 -0.25803667 0.37536454 -0.046850346 -0.05735364 0.6910137 -0.031205604 0.1556389 0.07028121 0.46257073 0.26639467 0.4602247 -0.035771333 0.034053206 0.5374809 0.49368286 0.086311705 -0.1252072 0.10242345 0.18855657 -0.287216 -0.008994087 -0.18941352 -0.0954996 0.21846913 0.67224705 -0.3350119 -0.5824184 0.26521206 0.11038251 -0.054463193 0.5572394 0.07079676 0.39207378 -0.088349536 0.2878977 -0.08165879 -0.14064035 0.29655626 -0.22586823 -0.39474916 0.27028325 -0.28313625 -0.16206466 0.09998401 0.52543604 -0.50860727 0.44996297 -0.3483388 -0.33843538 -0.21163416 0.021888133 0.06767615 0.071891084 -0.6487366 -0.36624596 0.048446693 0.3944002 -0.19855727 -0.38344806 -0.26248807
되다 -0.017515471 0.046610598 -0.14875533 0.4821737 -0.2308656 -0.34356233 0.15651163 -0.057481375 0.07582718 0.014467367 0.27988666 -0.42768425 0.09554828 -0.3913352 -0.09323238 -0.35721272 0.62153846 0.10728235 -0.48783168 0.79699886 -0.2033406 0.0019427314 -0.1989589 -0.41125205 0.30472168 0.30644283 0.32805303 -0.0029425228 -0.19398399 -0.15637648 0.07886427 0.12855825 0.29522943 -0.44851714 0.24707541 -0.08235585 -0.41728193 0.44679144 -0.45584497 0.34564465 -0.05091993 0.106394 -0.014092804 0.120334305 0.7560585 0.09023682 0.4816124 -0.29483575 0.44395065 -0.0937259 0.17023785 -0.39533234 0.1475501 0.47482452 0.34754503 -0.10338577 0.19772638 -0.27389932 -0.16923212 -0.01856198 0.26780602 0.27654323 -0.12144423 0.023170846 0.4333163 -0.24987356 -0.7640843 0.07838968 0.33622193 -0.088602915 0.343671 -0.1944133 0.28977624 -0.099218436 0.5140231 -0.07150173 0.27550814 0.3697655 -0.95991606 -0.27255392 0.5841824 -0.5287247 0.2455574 -0.19270872 0.47357583 -0.5400745 0.18698302 -0.46465224 -0.17329906 0.03044789 -0.036924146 -0.27816197 -0.46670553 -0.74559724 -0.1644664 0.13002396 0.3861894 -0.25347602 -0.0982127 0.04292999
분 -0.13275412 0.19114845 -0.27475873 1.1776199 -0.45714822 -0.4949479 0.067348294 -0.0075900164 0.69402933 -0.12428141 -0.028385654 -0.24391365 0.052391894 0.076949865 0.11355859 -0.43348402 -0.026744084 0.10525952 -0.79244316 0.6634414 -0.10507918 -0.04102838 -0.24981721 -0.5737812 0.4085995 0.12843876 0.7975685 -0.16542605 0.26381573 -0.15811485 -0.2130644 0.5057138 0.18540676 -0.8105328 0.15095867 0.2993993 -0.24765994 0.9924782 -0.405461 -0.47751737 0.34145337 0.15437737 0.28879747 0.36302304 0.64921963 -0.21189815 0.6920128 -0.17933655 0.17080864 -0.74630183 0.03198387 -0.52604526 0.022993995 0.1736675 0.48405686 -0.1969381 0.40556064 -0.4152293 0.08530001 0.64392674 0.36637032 0.30958185 0.056038927 0.04061646 0.2642516 -0.63964903 -0.9061096 -0.32690728 0.38032064 -0.22924474 -0.011530994 -0.85526997 0.84271497 -0.39136344 0.7509595 -0.023728037 0.84299767 0.08845289 -1.1322645 0.17961185 1.222133 -0.22691177 0.51280004 -0.3569577 0.30405146 -0.85449415 -0.3288616 -0.6678898 0.13374762 0.47480968 -0.23946533 -0.7655568 -0.6438783 -0.68863845 -0.33694968 0.04678171 0.10459683 -0.15305586 -0.39952537 0.6702923
월 0.19440891 0.018406512 1.5865831 1.3481195 -1.7277843 0.7506063 0.6710638 0.8205562 -0.18228802 0.7196724 1.0313503 -0.77191746 0.3716993 -0.88446385 -1.3255882 -1.0030053 0.8775854 0.13400091 -0.34496176 0.805214 -0.23724589 0.6819247 0.2561326 -0.50647193 -0.5914622 0.5455158 0.4921695 0.10484059 -0.0625006 0.9705842 -0.32041132 0.40380654 -0.053547602 -1.1833285 -0.13749884 1.0022312 -0.12870073 0.7487775 -0.46207574 0.5548813 0.70677567 0.099430725 0.22753328 -1.3181522 1.6010572 0.5876504 0.77327126 0.2828549 2.121934 -0.655105 -0.026267668 -2.070984 -0.45940927 0.34286624 0.6864957 -0.17947608 0.6839716 -0.82409155 -0.92140603 -0.013571669 0.7577733 0.1464507 -0.08924846 1.447604 1.0305963 -1.0606031 -1.6778263 -0.011911124 0.4014156 0.54368573 0.38992065 -0.43100595 0.5263753 0.7894879 0.9439093 -0.90137017 0.6111137 1.1082423 -2.0253916 -0.52416193 0.8938462 -0.82882357 -0.29472396 0.03337476 -0.048607133 -0.48331273 0.036409054 -0.78499514 0.2836925 -0.071540244 -0.5530257 -0.020574588 -0.8552685 -1.814584 -1.0016742 -0.24138956 1.0190775 0.91473144 -0.97045386 -0.39745378
일 0.20871736 0.030497795 1.3287166 1.1490245 -1.4191362 0.5504069 0.57597595 0.7255607 -0.12786454 0.5217293 0.8974703 -0.56425685 0.24785839 -0.7154389 -1.0918964 -0.81930023 0.78839576 0.21405602 -0.34510443 0.7158937 -0.16080524 0.45512527 0.31172943 -0.33428797 -0.63243043 0.37716743 0.43589076 0.14052236 -0.11748095 0.9381438 -0.21239746 0.41108727 -0.031395517 -1.064 -0.18016987 0.8872013 -0.06322718 0.78882277 -0.41327646 0.35559443 0.6168994 0.22647442 0.2151546 -1.1157105 1.375832 0.40364245 0.7456862 0.29295114 1.785781 -0.66914463 0.06911376 -1.7304578 -0.4798142 0.2581995 0.6952674 -0.16018619 0.6829444 -0.7942461 -0.63619834 0.11764497 0.61985356 0.067772485 -0.14212024 1.1950767 0.92618644 -0.965659 -1.3546808 -0.03673464 0.44086382 0.44886687 0.20653264 -0.49789774 0.4463936 0.65265703 0.76814437 -0.6812885 0.45986843 0.8955403 -1.7791117 -0.3948057 0.6797519 -0.5919564 -0.27251142 0.016878858 0.009053671 -0.45933124 -0.045796566 -0.7473962 0.089789994 -0.19787976 -0.6663669 -0.040503968 -0.7574901 -1.544753 -0.8179682 -0.15066054 0.8197565 0.8632458 -0.7983178 -0.23363316
오전 0.10516584 -0.6205331 0.47444946 0.47332832 -0.6537694 0.6499696 0.45811063 0.14573908 -0.6919054 0.11390827 0.5095286 -0.12639095 -0.28675956 -0.47101185 -0.46910396 -0.7876384 0.15454529 -0.48146972 -0.513772 0.37820312 -0.31692147 0.16368695 0.38047743 0.079824485 -0.29223892 0.53522134 -0.24421316 0.33239776 0.49461803 0.9868505 -0.4114939 -0.46351582 -0.028856698 0.046087857 0.20360154 0.4194417 -0.59116703 0.23632862 -0.04589942 -0.09416913 -0.3921939 0.45865348 0.4940396 -0.5286854 1.0960269 0.013117532 -0.54484177 0.22210178 0.59584737 1.085979 0.6414405 0.33097586 -0.21829827 0.1076915 0.7089079 0.4666861 0.2196596 0.32193932 0.22027385 -0.1444307 0.2612016 -0.9824244 -0.37992063 1.2192129 0.6531957 -0.7652815 0.016046155 0.18943062 -0.3156632 0.5538015 0.8634504 0.33795524 0.08235193 0.35090986 -0.01998076 -0.16637862 -0.08380933 0.17579475 -0.07422611 -0.5643873 -0.1798909 -0.6276447 -0.324076 0.3842731 0.3691108 0.19307451 0.31958577 0.33369738 -0.101620294 -0.66306007 -0.59001774 0.057275523 -0.1311086 -1.3036091 -0.28181502 0.28619105 0.38397866 0.16761452 -0.5350703 -0.6619437
에서 -0.13804674 -0.19988234 -0.024409046 0.42518497 0.2138344 0.21840277 0.2913165 0.3371409 -0.0037661223 -0.52774 0.46405575 -0.060113814 -0.599884 -0.37594706 -0.34176102 -0.14988862 0.5845079 -0.0805345 -0.40301356 0.6348864 -0.17794026 0.04635272 -0.9211727 -0.2153573 0.30210426 0.31642416 0.07952166 0.46924287 0.15364695 0.00873575 0.13815506 0.09848457 0.4597089 0.40913126 0.37263533 -0.1048349 -0.4594722 0.41175094 0.4198743 0.048289776 -0.08819939 0.5778023 0.277118 0.013098879 0.7099584 0.18621951 0.060737964 0.2976509 0.5849395 0.2772708 0.15954924 0.12834492 0.23952572 0.49615797 0.19130759 0.082064085 0.3448366 -0.07301926 0.03440185 0.062461812 0.3881888 0.47230014 0.029223701 0.38424042 0.78454876 -0.3300097 -0.9017212 0.062085155 0.014684381 -0.057064746 0.1344454 -0.11386664 0.24822406 -0.42170906 0.12919307 -0.47222733 0.23151655 0.24780741 -0.2359639 -0.07898845 0.36271796 -0.39040276 -0.8162563 0.50694907 0.6421547 -0.6461167 -0.25277868 -0.73639107 -0.7499546 -0.22246918 -0.22045891 0.06586392 0.07449185 -0.5626123 0.077365875 0.32154396 0.6480105 0.09723192 -0.50165915 0.04671505
창업 0.28670484 -0.6429918 -0.35046527 0.9801045 0.4472664 0.7111718 0.29866952 -0.44695383 -0.7627442 -0.96553695 0.38128948 0.47035596 -0.81425655 -0.5280396 -1.0441992 -0.7471611 0.6435552 -0.48916668 -0.29206756 0.29191053 -0.46677643 -0.065607145 -0.40901822 0.08971373 0.19181843 1.1720313 -0.5240171 0.6910512 0.13313477 0.53923696 -0.0066747023 -0.054790195 0.17933163 0.54639244 1.4531318 0.19693157 -0.8009437 0.59744304 0.38745657 0.2926432 -0.7044364 0.77290833 0.11835025 -0.33446735 0.5905387 -0.21292228 -0.068572916 0.6369134 0.5316063 0.80163366 0.55144006 0.5446713 -0.1593956 0.7309717 0.8855751 0.39187998 -0.5136146 0.29184705 0.9795576 -0.38523063 -0.050222967 -0.4316509 -0.27748564 0.69680285 1.188869 -0.4817124 -0.57368493 0.4027671 -0.47287977 -0.3051869 1.0233755 0.3723602 0.78558195 -0.43368155 0.15601029 -0.13491032 -0.42062283 -0.072326235 0.5264371 -0.38591212 0.13586977 -0.0023679938 -0.7676491 0.7504331 0.78688973 -0.42725304 0.55769354 -0.17483895 -0.7264762 -0.45587903 -0.24916288 0.84885365 0.5547985 -0.7717675 -0.6760284 -0.28764683 0.16504289 0.02333566 -1.0364071 -0.21261728
사진 0.18587112 -0.6304298 0.3549809 0.36334252 -0.89998245 0.7603601 0.56889015 0.20614786 -0.8667524 0.31436443 0.6232953 -0.20123138 -0.31849697 -0.4150313 -0.4454454 -0.85025746 0.06262975 -0.43741515 -0.7296625 0.37609935 -0.26232857 0.16891861 0.30427638 -0.015982678 -0.03949274 0.24827859 -0.22753614 0.2162313 0.34222004 0.99272156 -0.5348156 -0.31490186 -0.07391187 -0.087072186 0.12221656 0.42035738 -0.6256889 0.34779736 -0.03347005 -0.13095503 -0.36534345 0.43694603 0.391689 -0.53230095 1.2374542 -0.007263796 -0.4985688 0.23281373 0.6560677 0.97223955 0.72437423 0.2127914 -0.124516755 0.03324403 0.84149414 0.45170534 0.23027737 0.3876432 0.10570913 -0.02853664 0.34588954 -1.0613655 -0.4136664 1.1466969 0.6734189 -1.0055948 0.098726265 0.08375726 -0.25034952 0.7121919 1.0285108 0.12936245 0.2486114 0.37177283 0.08783852 -0.13594337 0.0038764009 0.21058354 -0.34808207 -0.62476087 -0.05853805 -0.6171592 -0.20788714 0.4464479 0.34732056 0.055756062 0.37271255 0.38992998 0.008363312 -0.56627613 -0.64824957 0.005201553 -0.17071824 -1.315988 -0.37536195 0.35379368 0.32974586 0.053656872 -0.3956366 -0.7883303
로 -0.13498244 0.11181847 -0.24193531 0.68076664 -0.38304517 -0.12924351 0.10371824 0.13926734 0.19961393 -0.0042265193 0.31796712 -0.19356412 0.012763153 -0.2508022 -0.109222114 -0.35408482 0.2779157 0.0974935 -0.63213015 0.6053907 -0.23278278 0.10468064 -0.24437712 -0.41797593 0.31084663 0.0022273788 0.3738341 0.03195831 0.09485945 -0.05008088 -0.011378968 0.33786315 0.08807859 -0.4428884 0.061422165 0.12518443 -0.26657212 0.6156495 -0.24519007 -0.17826581 0.107173845 0.23374407 0.06321438 0.22710887 0.7678846 -0.06887729 0.26154137 -0.13004129 0.38417262 -0.43933526 0.17138994 -0.31970695 0.060251746 0.2292518 0.4087004 -0.02395225 0.38719904 -0.26601526 -0.10742699 0.35301045 0.27555788 0.27027878 0.05540049 0.16298051 0.32838365 -0.51033324 -0.65597934 -0.026413212 0.25228292 -0.015629243 0.070615456 -0.46632457 0.5338312 -0.112774365 0.5458241 -0.09362994 0.34233296 0.1805864 -0.722782 -0.076381214 0.69298595 -0.25999868 0.16445473 -0.11456092 0.3687946 -0.67987585 -0.122440524 -0.4892652 -0.006882533 0.22257614 -0.006573157 -0.41050756 -0.42157084 -0.571057 -0.25133774 0.026809044 0.2669115 -0.1419855 -0.3146415 0.088446304
지원 0.06657891 0.20849846 0.06300228 0.59534454 -0.42271885 0.13447395 0.01091386 -0.018994637 -0.1988559 -0.042196013 0.15364043 -0.14762206 0.29860774 -0.5847163 -0.32068318 -0.4695014 0.4069766 -0.22316736 -0.21635312 0.2704948 -0.2243655 -0.0331679 0.098254286 -0.16831364 0.22439653 0.11260312 0.07802894 0.035979155 0.105805665 0.17333531 -0.221065 0.27080122 0.06337094 -0.47724628 0.39206144 0.13698356 -0.1849767 0.2112495 -0.6760347 0.31803226 -0.13874067 0.056200497 0.14569342 -0.035694405 0.8595162 -0.007355547 0.40726006 -0.0122849485 0.59870106 -0.33942255 -0.30893067 -0.38146186 -0.30084315 0.10896183 0.6270673 0.0574909 0.299001 0.01866018 -0.039816152 -0.03297396 0.27800012 -0.112516075 -0.0254129 0.10913843 0.4016988 -0.47125262 -0.34430507 0.1186431 0.2444346 -0.12743975 0.45184085 -0.08176989 0.4030897 0.1700484 0.504482 -0.012019558 0.14912997 0.38966897 -0.60114056 -0.2350545 0.5743114 -0.32191488 0.22505648 0.13360268 0.13918024 -0.084418215 0.17564367 -0.2334042 0.26092547 0.16458851 0.2612074 -0.0631504 -0.62861633 -0.5023118 -0.37459812 -0.40025347 0.077476054 -0.18867052 -0.33051333 -0.20735708
수 -0.32965982 0.08433077 -0.39176854 1.0529269 -0.11278537 -0.21015178 0.2306872 -0.04016507 0.5330452 -0.2743158 0.16265263 -0.053079154 -0.23418298 -0.114068925 -0.24803957 -0.48722515 0.18389906 0.023879481 -0.6743847 0.8547 -0.37730888 -0.1197934 -0.7916746 -0.41483232 0.31591493 0.31641233 0.47826603 0.009888717 0.04306484 -0.38414162 0.02031357 0.67409086 0.4255953 -0.5209776 0.40337908 0.01683601 -0.15613437 0.8254604 -0.21465667 0.10226735 0.2614852 0.14823505 0.23836592 0.44178867 0.54907674 -0.060105246 0.6593169 0.08376432 0.16346195 -0.70798373 0.045280874 -0.44703037 0.02746366 0.39788258 0.29726908 -0.31138894 0.46524686 -0.29049394 0.040886696 0.3648362 0.46376786 0.54673296 -0.10880045 -0.12844022 0.54076344 -0.53151584 -0.83541137 -0.08197444 0.476866 -0.43796456 0.16543573 -0.69476163 0.5223103 -0.63202494 0.61753786 0.0118589 0.4073873 -0.022510067 -0.7417601 -0.119242325 0.99757665 -0.21766157 0.16723984 -0.03875729 0.34543347 -1.0322689 -0.19191594 -0.90975404 -0.31769764 0.30521128 0.095429644 -0.78233284 -0.12429401 -0.2724163 -0.17578274 0.10760852 0.3161603 -0.15870272 -0.571195 0.4363908
년 0.19092065 -0.13727655 1.2662461 1.0832309 -1.2396088 0.7977325 0.5275471 0.5798003 -0.27139762 0.40489066 0.92429054 -0.43193963 0.14852229 -0.641895 -1.1826546 -0.8171371 0.69637007 0.11484784 -0.2528124 0.5544639 -0.22017696 0.4839793 0.22420809 -0.31691816 -0.632669 0.4855768 0.26282337 0.2556023 -0.13403173 0.95460707 -0.14223816 0.3599881 -0.19613355 -0.7632336 -0.06821267 0.8952218 -0.10568828 0.65827394 -0.20739634 0.44031608 0.5816276 0.2609807 0.14194645 -1.0976261 1.197527 0.4576148 0.50390303 0.38711962 1.711499 -0.48708352 0.22707932 -1.6003264 -0.41789508 0.35726184 0.5592319 -0.107564844 0.4443973 -0.7629576 -0.53750783 0.0011236079 0.46144152 0.042220086 -0.1231134 1.2562956 0.9325071 -0.7873423 -1.2903924 0.014597561 0.22608837 0.43532294 0.23382404 -0.32335082 0.4227971 0.51605475 0.6758868 -0.7208492 0.2527792 0.8092513 -1.3266323 -0.3696012 0.50022113 -0.4443626 -0.47514084 0.055557214 0.003779592 -0.39349923 0.014544105 -0.60090864 0.0077871275 -0.29227802 -0.5594855 0.16425373 -0.3633988 -1.4283153 -0.8639756 -0.0954008 0.77398556 0.91133934 -0.8597261 -0.38530558
해주다 0.05582633 0.34367028 -0.5792385 1.4166 -0.5880031 -0.6525583 -0.25461558 -0.17351261 0.5459641 -0.17115799 -0.1487221 -0.20982331 0.40044954 -0.36378044 0.20560344 -0.6739705 0.12144199 -0.12862125 -0.9149103 0.53823954 -0.25215706 -0.17530747 0.2111958 -0.6464786 0.7288762 -0.01571298 0.8560814 -0.29678696 0.6159055 -0.042113427 -0.3341324 0.45894644 0.14309914 -1.0327679 0.3481256 0.12629905 -0.38035202 0.8820532 -1.0663834 -0.6671028 -0.036197834 0.0811165 0.24068066 0.58640194 1.155455 -0.50063103 0.56741774 -0.45749044 0.1373209 -0.704819 0.007310017 -0.12446483 -0.02577754 0.098879814 0.92158264 0.025725584 0.4936843 -0.03946479 0.2453049 0.66802466 0.41101614 -0.11444544 0.087219276 -0.051519107 0.08616739 -0.94798756 -0.74467987 -0.054445937 0.32132372 -0.41006884 0.29981494 -0.7672022 1.1076484 -0.13763897 0.9241868 0.22237888 0.7665326 0.1466353 -1.1796331 0.16067584 1.4416424 -0.5181347 0.97332895 -0.466734 0.4460848 -0.8963294 0.023520889 -0.5475758 0.41841328 0.6817228 0.0868517 -0.9665743 -1.1738355 -0.7329831 -0.2577995 -0.3192004 -0.14797746 -0.7777575 -0.4676367 0.46267426
시 0.16820978 0.047039494 1.5423608 0.44109783 -1.0858701 0.5096472 0.7136394 0.75189143 -0.32320413 0.4162992 0.85262287 -0.8207596 -0.07214299 -0.65070254 -0.8249048 -0.5469785 0.9597342 -0.030879587 -0.06899245 0.7789078 0.061991353 0.49577975 0.1288355 -0.27878174 -0.50584275 0.48377663 0.23839232 0.3302405 0.011196722 0.71270484 -0.27711186 -0.06780081 0.39878616 -0.48288423 -0.054517638 0.6937279 -0.2874096 0.22360691 -0.16024654 0.58835465 0.31543523 0.19501962 0.26791668 -1.0949777 1.2122595 0.6841069 0.58768964 0.19306244 1.7173734 0.14599007 -0.37540007 -1.1892608 -0.44489032 0.1518695 0.4824869 0.044739857 0.7405974 -0.48669574 -0.80512595 -0.18933222 0.6664668 0.11511261 -0.19412306 1.096804 0.95502275 -0.45139524 -0.9232347 -0.17912304 0.35212052 0.47669062 0.29911008 -0.07249606 -0.14200789 0.6926849 0.5129369 -0.83554935 0.5388907 0.9793123 -1.593364 -0.6590737 0.41575328 -0.82389873 -0.41824016 0.43711025 0.14288686 0.24551041 -0.18846272 -0.36864704 -0.06485744 -0.41639933 -0.842022 0.19516982 -0.9143948 -1.5840333 -0.44501802 0.11180928 0.83710974 0.97525257 -0.41115534 -0.26803145
감사하다 0.11842527 -0.13093889 -0.36594868 0.72685397 -0.59111506 -0.16121437 0.08380899 -0.22099094 -0.19117226 0.0023311875 -0.10453839 -0.15189424 0.023571657 -0.1344157 0.3268865 -0.61272067 -0.18896465 -0.37468836 -0.927001 0.26587597 -0.11128489 -0.1469145 0.48812473 -0.3251434 0.5774949 0.069353014 0.38276902 -0.17489226 0.5726395 0.39141193 -0.551488 -0.076932736 0.005629961 -0.5243812 0.30155182 0.12806694 -0.65342313 0.50089574 -0.5386452 -0.7313524 -0.40119666 0.14586695 0.40820137 0.26519364 0.9205717 -0.3411131 0.040689677 -0.25736567 -0.055791393 0.3056703 0.46930858 0.41911277 0.06786434 -0.14181767 0.90188915 0.33742696 0.201787 0.45578682 0.405743 0.43473026 0.25358555 -0.86540765 -0.23041727 0.2517098 0.22165936 -0.8584106 0.07974983 -0.1401663 -0.16719243 0.08173783 0.75630915 -0.29674563 0.6271045 0.0041971696 0.33461246 0.35146978 0.46648896 -0.023081899 -0.6070201 -0.21820731 0.7213549 -0.42517975 0.6552805 -0.1415201 0.35949054 -0.2560651 0.3021885 0.1500514 0.29667872 0.108906284 -0.2912698 -0.65354735 -0.69039613 -0.887543 -0.10930821 0.17744002 -0.23532942 -0.6502783 -0.10677979 -0.009005621
학기 0.16292757 -0.2870928 0.3746242 0.96889853 -0.25095385 1.0120558 -0.05268345 -0.21490258 -0.28970328 -0.39427942 0.8684531 0.1698735 -0.28297153 -0.3368038 -1.2384249 -0.7222847 0.36276427 -0.05170729 0.21755736 -0.09498253 -0.28859115 0.06839772 -0.41581833 -0.14054601 -0.33092105 0.61758506 -0.30027425 0.5169541 -0.10095149 0.517657 0.43662032 0.75503796 -0.64624566 0.058874097 0.86571324 0.5019713 -0.01390203 0.47293717 0.10452964 0.74895674 0.50297606 0.47549674 -0.31373137 -0.61791706 0.4078176 0.25134805 0.21142715 0.98589075 1.2477777 -0.37625834 0.22300985 -0.96687603 -0.2703965 0.9326579 0.35744682 0.13565278 -0.6071591 -0.46431643 0.41272435 -0.4541515 -0.09959333 0.16046776 0.14557949 0.86560035 0.6769552 -0.046890102 -1.1290753 0.040350378 -0.083972834 -0.47839126 0.18305367 0.031128557 0.5448609 -0.2686852 0.26447386 -0.40906703 -0.15780646 0.4104524 0.3629041 -0.009812048 0.3479493 0.28715503 -0.92969596 0.093244135 0.024716467 -0.3162057 0.14926322 -0.4697378 -0.35365 -0.29348525 -0.034899477 0.45735943 0.6263626 -0.50335544 -1.0257853 -0.1833851 0.27764636 0.9118959 -1.1046065 -0.49975693
참여 -0.058765803 0.26291987 -0.76901865 1.6894125 -0.36473042 -0.51213217 -0.36600202 -0.5512954 0.4302499 -0.5345447 -0.26276675 0.05747744 0.26870134 -0.35220426 -0.006263543 -0.79613197 -0.030895809 -0.40283528 -1.029577 0.51578426 -0.4471866 -0.31864375 0.2069766 -0.64078707 0.8285164 0.40004468 0.9334005 -0.22931622 0.51792413 0.05439537 -0.31450328 0.5739887 0.13569689 -1.0208578 0.84442776 0.018299656 -0.6942547 0.95881 -1.2503402 -0.50399387 -0.19805765 0.27176753 0.44945067 0.6419147 1.0570006 -0.5164723 0.79754657 -0.36308828 0.07602546 -0.6485405 0.19262592 0.054589327 -0.05495139 0.29001495 1.1769139 0.035393763 0.24991871 0.2012707 0.55735564 0.50095206 0.25718686 -0.42899138 -0.08436353 -0.22412474 0.37693807 -0.87400705 -0.82676876 -0.110097595 0.15874681 -0.70530087 0.6581793 -0.5140118 1.2992237 -0.4520763 0.9183983 0.43431774 0.6521441 0.16931751 -0.9123703 -0.05035226 1.5944607 -0.3156509 0.888667 -0.45371118 0.42957553 -0.98864263 0.27883855 -0.676971 0.29937103 0.54151636 0.2989287 -0.9579056 -0.9124015 -0.69820076 -0.33804324 -0.28875613 -0.24101657 -0.91971797 -0.60280186 0.417557
안녕하다 0.13682058 -0.8382126 -0.25231937 0.78880495 -0.13902716 1.0527064 0.32391736 -0.28623518 -1.050013 -0.6250785 0.49248168 0.42818737 -0.7060072 -0.5910949 -0.9539716 -0.92971784 0.19601862 -0.68728185 -0.6320469 0.25026 -0.5403459 -0.04535886 -0.120187044 0.10779663 0.18568654 0.82951474 -0.49046987 0.6073599 0.14724386 0.96877 -0.19875625 -0.030849855 -0.10543729 0.5508602 1.0596684 0.2051373 -0.9161007 0.5359712 0.23325579 0.104444094 -0.67817754 0.9286173 0.37214392 -0.3966962 0.99765086 -0.14912276 -0.4123548 0.7165081 0.6126893 1.1253796 1.132444 0.603441 0.057491895 0.6560583 1.0557294 0.54709697 -0.40038392 0.5551522 0.91966087 -0.24353546 -0.029617345 -0.9953955 -0.43270132 0.9519753 1.2644787 -0.8625105 -0.23166585 0.34978083 -0.50759065 0.15148969 1.3809174 0.38195187 0.6823897 -0.3211583 -0.00347269 -0.055051535 -0.49995792 -0.05925002 0.58394736 -0.6649777 0.012232693 -0.1243733 -0.80722004 0.67925775 0.6872819 -0.35294598 0.6963644 -0.041646775 -0.56951416 -0.6891562 -0.28032285 0.49269295 0.5840335 -1.0940603 -0.6445054 0.16927835 0.33504888 -0.11770393 -0.883863 -0.78408784
하고 -0.4494066 -0.18132685 -1.2352432 1.2423729 0.4923751 -0.06881019 0.09172833 -0.436007 0.2270692 -0.99572897 0.2575075 0.37155765 -0.539885 -0.061569564 -0.53936225 -0.57724404 0.06525639 -0.08745796 -1.0374858 0.9110233 -0.8049174 -0.23170342 -1.1889699 -0.3333852 0.74221337 0.5542975 0.30534282 0.21821143 -0.13125692 -0.4781357 0.26496002 0.7646527 0.21287644 0.026282465 1.0039777 -0.31816852 -0.5790768 1.1315767 -0.072457135 0.18490465 -0.10845417 0.7385266 0.078770064 0.82076 0.6093144 -0.27145594 0.27364203 0.20603901 0.0039622476 -0.4237942 0.60730183 0.24885298 0.24879743 0.8721462 0.6036838 -0.11530287 0.09629399 -0.11939747 0.64635354 0.25092158 0.06608191 0.3856599 -0.18847764 -0.32333973 0.8405195 -0.5118221 -0.9301428 0.13203575 0.26139 -0.63828886 0.5861359 -0.4488536 1.0520353 -1.2498957 0.53589374 0.16535997 -0.07630976 -0.25606737 0.02358294 -0.24518408 0.9507622 0.10161477 -0.23410365 0.049265224 0.8173774 -1.409421 0.053866535 -0.9439626 -0.6249687 0.19158275 0.52218837 -0.53439176 0.42275393 -0.14839326 -0.40615687 0.09040998 0.21647154 -0.5958904 -0.7732115 0.19905594
진행 -0.23732564 0.12266036 -0.33828637 0.8131341 0.12984818 -0.14740789 0.04307243 -0.05751462 0.24381681 -0.4552118 0.386631 0.01736352 -0.19126087 -0.255029 -0.59493566 -0.22095552 0.49172977 0.16538297 -0.45256987 0.73199064 -0.45302016 0.084464304 -0.6274455 -0.35321513 0.27031657 0.41129768 0.39424765 0.1258171 -0.33500028 -0.36452132 0.3770972 0.56442213 0.27653185 -0.22021171 0.5512269 -0.1358837 -0.29342028 0.69859153 -0.21886669 0.45590007 0.16575792 0.3706391 -0.17755932 0.24087293 0.5112995 0.025872514 0.5304945 -0.02579623 0.5569617 -0.6676232 0.14801644 -0.4614008 -0.015133334 0.6798213 0.32610086 -0.22832961 0.084929526 -0.37628236 -0.052942872 -0.009419141 0.11602438 0.59751296 0.05904114 -0.16724393 0.61961234 -0.14943296 -1.1692446 0.14258166 0.4228977 -0.40159285 0.01956598 -0.27794072 0.6676585 -0.4396035 0.54008704 -0.19540268 0.116735116 0.33608377 -0.49707845 -0.19794269 0.7829332 -0.048601296 -0.22517173 -0.096973695 0.52720666 -0.91636336 -0.018494245 -0.9181438 -0.4161717 0.06804641 0.34131533 -0.20084506 -0.020700132 -0.23039794 -0.28606752 -0.14924568 0.3928554 -0.07247271 -0.50856066 0.2257472
신청 0.0054552765 0.5004983 0.32315987 1.0311728 -0.720737 -0.1259749 -0.05721519 0.20406127 0.31659842 0.10723206 0.20803218 -0.3932574 0.56057054 -0.6113785 -0.2469496 -0.5648389 0.60405236 0.03773898 -0.18739514 0.44877154 -0.08832746 0.047906775 0.23193201 -0.46432924 0.109274864 0.051659055 0.4488876 -0.009589193 0.27783054 0.12476857 -0.28001696 0.448936 0.07057507 -0.96880364 0.16149111 0.3429973 -0.008195496 0.49753025 -0.8950139 0.094890594 0.2128703 -0.024921475 0.052929066 -0.015549242 1.0884129 0.059767872 0.8108922 -0.15547003 0.9230008 -0.9400789 -0.62589073 -0.9529548 -0.4262733 0.17351228 0.6197804 -0.13051258 0.5874768 -0.41267276 -0.32947114 0.29125506 0.44843432 0.33620533 0.09976046 0.24266055 0.31782594 -0.5597743 -0.9253638 -0.040462505 0.5105978 -0.15034157 0.04179781 -0.516214 0.6030877 0.23657508 0.9070137 -0.26674014 0.5938714 0.64094216 -1.3615035 0.010862282 1.028341 -0.52049375 0.4847542 -0.16228408 0.09266584 -0.28156105 -0.21885598 -0.5776923 0.34788385 0.4047943 0.14028195 -0.29681715 -1.0738847 -0.7803965 -0.5036977 -0.4712537 0.1831317 0.04104066 -0.50568753 0.17157456
문의 0.03169443 -0.35441518 -0.01805607 0.4856355 -0.4908419 0.3541658 0.23515193 0.056757785 -0.39932314 -0.010574876 0.33113763 -0.036487903 -0.13166657 -0.3293351 -0.2697631 -0.5632243 0.068218246 -0.29036877 -0.5209428 0.32881168 -0.20252249 0.034120668 0.09106113 -0.13286434 0.11464599 0.1661329 -0.044828497 0.13507095 0.2282592 0.5235542 -0.26359898 -0.082549684 -0.045679126 -0.105980456 0.1803297 0.22227293 -0.43789986 0.3499979 -0.14895011 -0.16694574 -0.24084485 0.35178024 0.2548896 -0.11755283 0.8389536 -0.09081449 -0.2631634 0.11991211 0.35956788 0.44140324 0.5085029 0.19687329 -0.02941515 0.15208733 0.6219572 0.2716772 0.10067152 0.2131555 0.17819695 0.06101324 0.1666722 -0.5076466 -0.15773252 0.62340766 0.45717853 -0.6941149 -0.13679953 0.12390641 -0.13037938 0.31105286 0.5773874 -0.005164644 0.35808572 0.03963639 0.19161381 -0.041098516 0.020510444 0.08826319 -0.17810257 -0.2658351 0.1804449 -0.34287766 -0.0658278 0.18482397 0.3157683 -0.2591693 0.25579658 0.05001044 -0.063953675 -0.23100576 -0.2962136 -0.07494368 -0.11622918 -0.77767944 -0.28463805 0.119179435 0.2310166 -0.099555306 -0.39339373 -0.3924506
부탁드리다 0.02933589 0.2965916 -0.688964 1.5772494 -0.38493252 -0.62432647 -0.34548494 -0.50223804 0.45434454 -0.54108894 -0.25241598 -0.053822767 0.26058722 -0.34499294 0.1206828 -0.80893064 -0.010736121 -0.49091077 -1.1577262 0.6023842 -0.38257647 -0.3187692 0.3238497 -0.56138957 0.78011066 0.29249823 1.0153873 -0.23211007 0.6772368 0.105931714 -0.31855822 0.40990973 0.2380544 -1.0556136 0.7786129 0.09699632 -0.66412 0.88909507 -1.3307731 -0.5387727 -0.22987926 0.14958552 0.49114197 0.69813985 1.1435319 -0.56503236 0.6693895 -0.4348368 -0.008787025 -0.5247358 0.2094308 0.24453753 -0.10713156 0.10408125 1.1891438 0.082966685 0.47657183 0.31174707 0.49995545 0.54596514 0.28490883 -0.5378252 -0.17735799 -0.18260723 0.30019552 -0.8962864 -0.57178676 -0.070549935 0.23581704 -0.6401087 0.71649975 -0.48576877 1.1115125 -0.3037001 0.79036635 0.55729854 0.680777 0.112032436 -0.93960065 -0.17996065 1.539583 -0.4719275 1.058352 -0.45090064 0.4377398 -0.6971487 0.29929143 -0.46082634 0.37283102 0.5855203 0.22915284 -1.0773599 -1.0608834 -0.83242357 -0.23920168 -0.201734 -0.32141 -0.9473926 -0.53470474 0.44041744
많다 0.013638699 0.17784782 -0.88656056 1.7967151 -0.2586301 -0.42499897 -0.33932018 -0.6435368 0.4356341 -0.7441698 -0.29801422 0.21468994 0.18676281 -0.16695586 -0.034973986 -0.77606285 -0.17397043 -0.36521584 -1.1802176 0.38802963 -0.4962735 -0.3463238 0.22267626 -0.6024833 0.85676295 0.5487808 0.96664554 -0.26042783 0.77006316 0.14393912 -0.3981447 0.37361312 0.17931744 -0.83105576 0.9145736 0.05640655 -0.7599522 1.0472776 -1.0528055 -0.73542446 -0.31872246 0.22114512 0.5443284 0.6438318 1.0625811 -0.5837258 0.70248467 -0.39599428 -0.17358747 -0.40622637 0.33921483 0.36199117 0.10491716 0.32346463 1.1764736 0.0913676 0.27629256 0.3570492 0.807066 0.65400374 0.2961002 -0.6183695 -0.23236363 -0.19946116 0.36837843 -0.7336755 -0.71355504 -0.16575906 0.0682029 -0.6863638 0.83598423 -0.47592857 1.418863 -0.48509687 0.82154024 0.53879994 0.6069771 0.002084201 -0.6410053 -0.016430307 1.4800881 -0.18078841 0.85589623 -0.38059106 0.57378846 -0.8390792 0.2643857 -0.58226424 0.2011507 0.46700323 0.18269354 -1.0745096 -0.7832373 -0.8279465 -0.34436125 -0.23291788 -0.30651438 -0.9459644 -0.6945116 0.5158653
주차 0.23364474 0.09945341 1.4643602 0.83487195 -1.1998267 0.45685714 0.53589445 0.6427094 -0.115660824 0.5208325 0.79289067 -0.6641023 0.25561652 -0.64718443 -0.98153126 -0.66575813 0.8879381 0.16122854 0.0043589934 0.6126852 0.01645434 0.5053066 0.2741564 -0.37196785 -0.62613916 0.4260551 0.33402577 0.17568526 -0.102997005 0.7328293 -0.20127305 0.24401581 0.065156825 -0.8351663 -0.10689299 0.83446205 0.011128976 0.5071466 -0.31959277 0.52854323 0.57381546 0.06831399 0.081915304 -1.1078439 1.150513 0.50006104 0.7506122 0.20464 1.7326341 -0.52245575 -0.22627719 -1.6776738 -0.4870438 0.2152535 0.4792864 -0.15014416 0.53021735 -0.7881172 -0.7465161 -0.08699868 0.5664264 0.28097823 -0.07973272 1.1167946 0.80919904 -0.5865321 -1.2473207 -0.060442336 0.39794454 0.40063637 0.084736705 -0.2980834 0.23576054 0.7223838 0.72543967 -0.79006314 0.48676354 0.9514482 -1.6665089 -0.4076999 0.5479897 -0.6320198 -0.23535267 0.07361818 -0.019486409 -0.11786694 -0.103261955 -0.54178745 0.11827836 -0.18722296 -0.6385694 0.18169692 -0.7896507 -1.3785361 -0.7588881 -0.20666371 0.75873363 0.9944419 -0.6607236 -0.17218253
까지 0.119008064 0.22675811 1.2084916 0.74943775 -0.9591494 0.2088437 0.40666595 0.5573636 0.061755445 0.39686862 0.59751254 -0.6616252 0.22595514 -0.545236 -0.6626984 -0.52857864 0.74287695 0.08460106 -0.039804686 0.5956615 0.01907332 0.37879905 0.25572416 -0.380508 -0.44030738 0.3625635 0.40730196 0.13687076 0.060210947 0.48191804 -0.22638272 0.1772532 0.15168673 -0.7760682 -0.0711469 0.6883686 -0.04021313 0.38836005 -0.41469607 0.36236277 0.47635713 0.010525561 0.14649458 -0.75124115 0.99430645 0.4317443 0.6966485 0.066748515 1.425239 -0.43701234 -0.40499118 -1.3528718 -0.47574472 0.14164683 0.41382986 -0.1082681 0.6209987 -0.6450911 -0.6945486 0.03359966 0.5685216 0.29517546 -0.055672277 0.85323215 0.5962983 -0.44461063 -1.0073066 -0.16578658 0.40743828 0.23674357 0.0435134 -0.28318527 0.12219391 0.5501083 0.6695475 -0.6562221 0.57026285 0.8133246 -1.5447454 -0.32563078 0.6057572 -0.62853056 -0.053988222 0.04006482 -0.0057624085 -0.01754906 -0.2632617 -0.4703376 0.15755773 -0.087299414 -0.52224404 -0.020729782 -0.9156928 -1.2335837 -0.5202205 -0.13812795 0.59637713 0.7802852 -0.46144146 0.017745368
여러분 0.14506868 -0.44450083 -0.7542255 0.99100655 0.1636079 0.13371754 0.06537681 -0.5577495 -0.25001818 -0.6807951 -0.17337114 0.41566956 -0.3881399 -0.1993363 -0.20435582 -0.67782277 -0.036462042 -0.49155214 -0.68113625 0.14203267 -0.28385535 -0.1746312 0.04592654 -0.1373778 0.4741261 0.63493454 0.061065663 0.24364617 0.4790031 0.38521147 -0.29740325 0.06926967 -0.021149227 0.04613589 0.9670164 0.11417256 -0.72052085 0.6922744 -0.030923758 -0.3682517 -0.5307036 0.5598429 0.30083114 0.23394045 0.56913656 -0.5111017 -0.0014120451 0.16508937 -0.086696476 0.49668032 0.7067371 0.71546084 0.11249764 0.37865448 0.86777085 0.32150948 -0.2685261 0.40053746 0.977323 0.21133837 -0.03952142 -0.76332265 -0.31422827 0.2506237 0.62915915 -0.6021607 -0.18778467 0.054180495 -0.40921482 -0.25377876 0.9608926 -0.0011940886 0.8835225 -0.5351726 0.25013113 0.30938485 0.08210291 -0.31964633 0.19698793 -0.25004157 0.5462935 -0.036241584 0.050054654 0.16849314 0.6360814 -0.3948399 0.40440723 -0.0753491 -0.24439086 -0.068484835 -0.13980293 -0.0835416 0.083563626 -0.64862806 -0.35702437 -0.036722377 -0.16505939 -0.55220383 -0.62298965 0.08119413
들다 0.030849291 -0.46893013 -0.83314645 1.3271638 -0.21384387 -0.14007995 -0.08002504 -0.31482968 0.29918265 -0.17011677 -0.24633294 0.33669776 -0.38476107 0.5150571 0.46142372 -0.6284801 -0.76852167 -0.01603369 -1.2378111 0.15153909 0.13104182 -0.12663338 -0.021693358 -0.6636744 0.73341596 -0.09602029 0.55161965 -0.14233388 0.6508586 0.409094 -0.48080412 0.46160406 -0.45594063 -0.21118726 0.10710465 0.30615833 -0.32766685 1.3577436 0.13469335 -1.5637025 0.106922075 0.42969102 0.42165038 0.3510847 0.6647349 -0.7757369 -0.014542898 0.1125619 -0.428908 -0.08995878 1.2082053 0.2635055 0.65646976 0.19544135 0.6772274 0.092159905 -0.30961302 0.2080508 0.89250493 0.8408755 -0.13152516 -0.49504918 0.16973893 0.54165345 0.12819454 -1.0953736 -0.5267882 -0.35237932 -0.366771 0.0964075 0.26813886 -0.9261326 1.4322894 -0.7125365 0.40676963 0.1294246 0.71760327 -0.49325034 -0.11723692 0.5057007 0.82911414 0.19642857 0.36757094 -0.39229998 0.51909703 -1.1220809 -0.255144 -0.08782665 0.056502536 0.19716516 -0.7037288 -0.6716945 0.2042258 -0.64257145 -0.45541593 0.4320518 -0.22227943 -0.5208818 -0.52046627 0.57563406
인 0.010918743 -0.47145364 -0.5958636 0.49952653 -0.15031338 0.18327634 0.4147458 -0.23514085 -0.26138872 -0.3137884 0.3417564 0.13008997 -0.4085535 -0.27793622 -0.32062304 -0.5142713 0.18695223 -0.35365403 -0.8066077 0.36630538 -0.5336828 0.0882197 -0.06341911 -0.13068202 0.41996947 0.3891693 0.02860487 0.25057876 0.14189374 0.08955878 -0.06512938 0.09997513 0.11303031 0.024507508 0.48851663 -0.09517242 -0.7702623 0.56325 -0.05803783 0.008000677 -0.42742348 0.38487613 0.1419812 0.26910135 0.6427733 -0.081275545 -0.13982631 -0.08351912 0.15662836 0.31177914 0.5713969 0.5088545 0.10202622 0.2822226 0.6480047 0.39810768 0.13933304 0.040009018 0.33201885 0.12090642 0.28250128 -0.61799896 -0.3714699 0.37357163 0.5149154 -0.5646205 -0.037190814 0.040359545 -0.24152198 -0.17564943 0.7365816 -0.046167042 0.38696033 -0.34848666 0.11112102 0.20805907 -0.11232957 -0.19098692 -0.060725298 -0.5556039 0.4827866 -0.23625088 -0.06886087 0.19841686 0.6116208 -0.32630232 0.3612772 -0.20817998 -0.17622298 -0.057222527 -0.0076208822 -0.26451465 -0.07209952 -0.560789 -0.121669985 0.2765607 0.10598248 -0.31498152 -0.36435586 -0.16750242
함께 -0.09055503 -0.3394774 -0.72043896 1.0262067 0.20695499 0.034830015 0.12963785 -0.17896615 0.1877525 -0.53974974 0.055893663 0.31552178 -0.43123975 -0.009902435 -0.3603153 -0.3727361 0.037412006 0.030030448 -0.70575535 0.40954483 -0.30012387 -0.051740978 -0.7331011 -0.2950498 0.4551922 0.4465838 0.19223285 0.213144 0.022777531 -0.030813934 0.04473416 0.5472372 -0.04309635 0.031081289 0.51777387 0.038689915 -0.34247383 0.9449889 0.29439667 -0.25777304 0.09748457 0.50970376 0.124537915 0.18404697 0.39369246 -0.31086028 0.16214876 0.34454682 0.05963244 -0.18348947 0.6423165 -0.05964384 0.3488003 0.6142643 0.35413027 -0.076247916 -0.18394056 -0.14211848 0.5384867 0.29316264 -0.0092346985 0.18093173 0.023364944 0.16160944 0.6340248 -0.51543915 -0.87789 0.025496926 -0.06808105 -0.30679333 0.2068919 -0.4481808 0.9719122 -0.77525055 0.35134742 -0.063780315 0.17003432 -0.17426898 0.016899502 0.11866227 0.62599194 0.19647294 -0.3319149 0.07853527 0.6196994 -1.1322037 -0.048178557 -0.6853551 -0.44728068 0.1294961 -0.09929125 -0.15441138 0.42559654 -0.30634317 -0.3754596 0.019551449 0.24216785 -0.19008493 -0.64354146 0.24624848
저희 -0.10381293 -0.5688881 -0.47734702 0.78046745 0.16178712 0.7895612 0.0450784 -0.30709243 -0.56650895 -0.79984236 0.5221346 0.55705714 -0.6183206 -0.33110952 -0.8828425 -0.647577 0.11521719 -0.39795354 -0.5420313 0.26086167 -0.5832065 -0.085075244 -0.51184374 -0.0060591013 0.20950602 0.63139015 -0.26266733 0.54125136 -0.03613467 0.46056914 0.16551502 0.3246648 -0.21300091 0.5795028 0.9157016 0.006144976 -0.619596 0.56576097 0.278473 0.16784416 -0.31621432 0.8979888 0.07397598 -0.029017305 0.6703664 -0.10144817 -0.29342744 0.62586147 0.4998673 0.5120966 0.9425844 0.37996107 0.122844726 0.76702464 0.74693817 0.3438759 -0.35171017 0.19073465 0.7678388 -0.16336116 -0.16285393 -0.42228094 -0.16510758 0.56125236 0.9673634 -0.49861348 -0.55855465 0.28242776 -0.29402015 -0.18378963 0.78746367 0.13996516 0.68922776 -0.620328 0.05399446 -0.1294931 -0.49438393 -0.09300216 0.71927655 -0.33785373 0.16392553 0.18133464 -0.85323495 0.36182302 0.62487584 -0.654463 0.38525316 -0.37904862 -0.6199573 -0.4086566 0.06636858 0.3065766 0.77320284 -0.52461517 -0.5593224 0.17115617 0.29314637 -0.08000329 -0.8456523 -0.5132259
동 -0.27796695 -0.378912 0.097874 0.31780887 -0.3858641 1.6727866 0.08714233 0.11083959 -1.004977 -0.48589665 1.1624147 0.52886486 -0.61488646 -0.59118086 -1.0687976 -0.8301149 0.02465676 -0.38043982 -0.88787985 0.6752827 -0.9077242 0.41389337 -0.15163799 0.30659318 -0.04461501 0.3050113 -0.2865336 0.66919595 0.092256345 1.0923439 0.015776442 0.23928525 -0.2662093 0.7415356 0.42805454 0.42862692 -0.6367286 0.04995948 0.34063333 0.19433247 -0.50836915 1.2985941 0.5039737 -0.39266163 1.4826467 0.22923435 -0.5165685 0.49343428 1.0020113 0.630047 1.0907743 0.54953593 0.038997345 0.7661096 1.0919598 0.6228969 0.56680703 0.050499916 0.5467073 -0.11840496 -0.037808333 -0.7058457 -0.47788614 1.0525337 1.5987993 -0.35311255 -0.27678943 0.39140785 -0.079174556 0.5508974 1.3645215 0.3686241 -0.083105125 -0.3014933 -0.24405836 -0.31983984 -0.97788674 0.0051022843 0.64423835 -1.091351 -0.32371545 -0.26219246 -1.443549 0.48085278 0.44636187 0.15991248 0.13552625 -0.3357845 -0.8172606 -0.95873857 0.39311492 0.2386559 0.832228 -1.3615746 -0.49554452 0.8304622 0.6983085 -0.112286985 -0.55617607 -1.2067046
시간 -0.009058213 0.14576297 0.20985697 0.7294376 -0.51819474 -0.26957223 0.23771803 0.23611128 0.4202143 0.15067965 0.16719793 -0.38726372 0.06269951 -0.1392773 -0.03337507 -0.2912452 0.35371974 0.20962717 -0.45027378 0.55396307 -0.0070673004 0.18317874 -0.021254532 -0.4692355 0.11138801 0.20378238 0.5709201 -0.028865388 0.13046154 0.015009775 -0.11901462 0.27645472 0.18480906 -0.6287189 -0.06716609 0.3095764 -0.21386112 0.5664616 -0.1878167 -0.17378907 0.3254838 0.04979435 0.12768632 -0.07800382 0.62083936 0.052578032 0.5961662 -0.14580591 0.52428925 -0.45651928 -0.013403182 -0.71945 0.026616273 0.13361962 0.30865565 -0.13711475 0.39448938 -0.4555013 -0.25591403 0.3739398 0.38633662 0.27814233 -0.03764607 0.2480785 0.32358095 -0.39290372 -0.83534515 -0.22694586 0.22903769 -0.012497289 -0.078795515 -0.5237969 0.3834367 -0.0061662626 0.5764656 -0.21694118 0.67501587 0.31905353 -1.1484189 -0.025053034 0.8053351 -0.3410063 0.24235675 -0.24347967 0.265022 -0.49938682 -0.23235579 -0.5245157 0.02301127 0.18772529 -0.3665917 -0.49828097 -0.6159237 -0.7606969 -0.1668528 0.09231307 0.2718366 0.1019933 -0.22213446 0.39742994
이수민 0.27898803 -0.42107642 0.13730872 0.35607153 -0.38421088 0.526883 0.39898443 -0.12308543 -0.76591367 -0.08735809 0.27492455 -0.07238579 -0.32918078 -0.3338142 -0.33025095 -0.63474166 0.17595918 -0.45283026 -0.4730824 0.20886739 -0.17927961 0.03419719 0.33569086 0.05504757 0.059604995 0.51112103 -0.20241745 0.24633537 0.31299135 0.7072626 -0.40667337 -0.2575981 0.04685581 0.028008545 0.5728467 0.2970886 -0.63707834 0.26340032 -0.005887284 0.06129944 -0.50526285 0.36487463 0.3055661 -0.40326512 0.78040195 -0.06925061 -0.12595855 0.19020592 0.460197 0.8598091 0.49299765 0.3062842 -0.1023868 0.06610317 0.7682818 0.38903826 -0.035822675 0.43178582 0.42313156 -0.13656996 0.13801529 -0.91813314 -0.39938265 0.70542336 0.6542693 -0.5788175 0.1270141 0.04687746 -0.3191882 0.29902923 1.0423326 0.24835859 0.27798098 0.1829712 0.086613804 0.05501396 -0.014827427 0.042235825 -0.1340486 -0.6361607 0.07149267 -0.30451155 -0.12191651 0.42762443 0.4068376 0.26948905 0.4727594 0.3189023 -0.038245805 -0.44064075 -0.4411619 0.17515454 -0.17683941 -1.0335355 -0.37414265 0.090006754 0.07282892 -0.08251244 -0.3294548 -0.41509283
학회 -0.030646736 -0.7577563 -0.2565626 0.598678 -0.49735695 0.7476176 0.09295946 0.3608631 -0.56591463 -0.22632825 0.20655943 0.32763532 -0.26813087 -1.179081 -1.1462513 -0.54146105 0.21331555 -0.40077034 -0.41854283 0.33064255 -0.5005629 -0.312769 -1.1522102 0.15831622 0.15114039 0.2095984 -0.2571182 0.10766792 -0.5278771 0.59372926 0.21274218 0.5159521 0.2718271 0.19389756 0.28119814 -0.55710226 -0.12996425 0.24575402 -0.376047 0.3763735 -0.08148957 0.44448406 0.6743937 -0.44218093 0.84648997 -0.10720919 -0.2991183 0.9104679 0.403764 0.52719367 0.8308473 0.087748356 0.3442425 0.59221953 0.38075203 -0.011292757 -0.105368 0.7396558 0.09936889 -0.45990807 0.17777592 -0.30248913 0.09555846 0.47635436 0.98111075 -1.2774504 -0.6040143 0.8676731 0.21255897 -0.12549306 0.5150593 0.107167274 0.4906942 -0.15780503 -0.15809777 -0.2967176 -0.53197294 0.3895545 0.40515935 -0.03470882 -0.10476906 -0.28128937 -0.8736911 0.93311614 0.190593 -1.3713791 0.73377126 -0.93169445 -0.537744 -0.06160244 0.10924433 0.32974312 0.6023575 -0.014222625 -0.020269465 -0.23546283 1.0178189 -0.41803056 -0.7999031 -0.998401
싶다 -0.18744946 -0.2985453 -1.3396474 1.3486736 0.08309117 -0.3490233 0.2126863 -0.30393574 0.4976033 -0.62910664 -0.06379449 0.19297606 -0.35918012 -0.07474673 -0.072393745 -0.4680788 -0.17705621 0.074260235 -1.1787674 0.7204169 -0.45391306 -0.22672251 -0.8628801 -0.40644237 0.7649999 0.2835835 0.44011012 0.033123992 0.19094187 -0.33564714 0.016614746 0.5895741 0.095239006 -0.30221266 0.5634275 -0.08499707 -0.5229169 1.2598491 0.048204444 -0.36882064 -0.07572129 0.5339982 0.28343716 0.62233746 0.569629 -0.51253396 0.20981002 -0.030129638 -0.2375187 -0.3336054 0.74265313 0.24050654 0.42772573 0.51162374 0.6153527 -0.053706914 0.11306884 -0.12174188 0.7479148 0.62471044 0.18489166 0.10298211 -0.03677983 -0.1972776 0.4381863 -0.7925953 -0.8089148 0.006115032 0.012911111 -0.3927822 0.44858885 -0.7117874 1.2463021 -1.0064498 0.59916943 0.24781741 0.41728303 -0.3396029 -0.33375913 0.099631056 1.1509959 0.11452704 0.13897997 -0.07216479 0.8135552 -1.4690043 0.036874015 -0.7420377 -0.2106884 0.43260232 0.0735886 -0.67576694 0.15555263 -0.33479145 -0.29564086 0.019813262 0.19511506 -0.7500926 -0.6825058 0.35190043
팀 -0.3385855 -0.18884282 -0.62188095 0.5852956 0.1802564 0.4880255 -0.017860211 -0.15986277 -0.36600438 -0.6604306 0.6886664 0.29334378 -0.3565469 -0.30307475 -0.80951 -0.45435247 0.13268572 -0.15203303 -0.61420906 0.52172685 -0.78250176 -0.11012217 -0.77581143 -0.12675254 0.3335332 0.29597256 -0.009884871 0.38560736 -0.40973556 0.016125726 0.27370745 0.47513634 -0.13497478 0.33703843 0.5992022 -0.2047323 -0.49824214 0.6018522 -0.11575585 0.43532702 -0.14725466 0.7966028 -0.14400491 0.24400406 0.76037854 0.014447752 -0.21238077 0.34988678 0.50371367 0.06601207 0.6486922 0.16225372 0.11852034 0.83796054 0.60668826 0.08969099 -0.0058598923 -0.01877648 0.23779568 -0.14265646 -0.11966463 0.028211515 -0.08942784 0.06847817 0.79275256 -0.4182836 -0.6234708 0.3334623 0.23146959 -0.16784309 0.4602901 0.020250214 0.6201207 -0.5769119 0.24299665 -0.19900253 -0.55144936 0.15611784 0.3968465 -0.38387007 0.25518018 0.11740784 -0.65979373 0.2398007 0.49494234 -0.85696715 0.18943769 -0.5165436 -0.4834556 -0.25270027 0.54433876 0.021950735 0.5296266 -0.24437138 -0.5150743 0.17413871 0.41171095 -0.24351291 -0.541462 -0.5712989
것 -0.08377827 -0.06198604 -0.7841168 1.02233 -0.20212519 -0.5921949 0.23597914 -0.27253652 0.47361377 -0.22841355 -0.01101409 -0.10461737 -0.06746252 -0.23529628 0.10718795 -0.45996302 0.18810898 0.038507707 -0.99896294 0.6831807 -0.34747374 -0.19874005 -0.44172686 -0.5292733 0.7426763 0.2943486 0.64778256 -0.044353347 0.1621167 -0.32514665 -0.073581405 0.32407874 0.17529698 -0.56657374 0.2880126 -0.091912456 -0.57615936 0.8072176 -0.340278 -0.36964354 -0.10981854 0.11153862 0.30741414 0.48522988 0.80383664 -0.20667085 0.4733987 -0.14880453 -0.11580869 -0.36260542 0.47214347 -0.042263016 0.35000953 0.3485904 0.6067402 -0.060408905 0.36389852 -0.22930178 0.20750941 0.6148538 0.45385927 0.01604014 -0.23749216 -0.09464637 0.35085586 -0.65484124 -0.6890286 -0.020526044 0.1318429 -0.33447158 0.2759519 -0.6178092 0.72399753 -0.6177283 0.5242132 0.23006944 0.59896004 -0.10527754 -0.8737568 -0.092343 1.1904061 -0.2590069 0.50086635 -0.3162763 0.6146572 -1.1287231 0.19027553 -0.7938211 -0.12055721 0.43905744 -0.023484815 -0.9152065 -0.35855758 -0.5674482 -0.024060354 0.14926472 0.19973737 -0.69679976 -0.3510881 0.33402824
관심 -0.29869354 0.016212584 -1.1686022 1.4200176 0.21176721 -0.21677116 -0.11587099 -0.7001493 0.25927952 -0.9520026 -0.24503246 0.36122212 -0.29726076 -0.22786039 -0.26701218 -0.68307424 -0.18501739 -0.5730282 -1.0745527 0.7003008 -0.7220856 -0.45080152 -0.55754405 -0.25503656 0.72951186 0.5981589 0.5036058 0.03985249 0.3798092 -0.19723065 -0.14828134 0.5375355 0.40872586 -0.37961248 1.1455989 -0.2477026 -0.6648862 0.85423404 -0.6443293 -0.14434457 -0.37513688 0.39602932 0.5761377 0.7973935 0.6878892 -0.4984067 0.47452307 -0.039339572 -0.3505402 -0.25937408 0.3270564 0.61971956 0.026021864 0.4308043 0.91184884 -0.017009001 0.31887764 0.45723382 0.8388778 0.3302897 0.18985078 -0.29810202 -0.30629256 -0.43309936 0.61325103 -0.62724996 -0.36732525 0.094944656 0.16154541 -0.8471832 0.90927273 -0.31934285 0.9627482 -0.91322744 0.5286511 0.58866924 0.12862208 -0.2964157 -0.05202774 -0.29945865 1.1536493 -0.07345696 0.38290736 0.06307328 0.56618494 -0.92192835 0.32607722 -0.691181 -0.17955081 0.38882187 0.47120753 -0.83047867 -0.10577132 -0.2552369 -0.16983941 -0.05935204 -0.13905185 -0.86225235 -0.67959154 0.31001392
학우 0.13214391 -0.7433425 -0.9130467 1.129573 0.0026713684 -0.009697672 -0.17290914 -0.5011209 0.03880222 -0.24211818 -0.16053537 0.6231206 -0.69756824 0.61877275 0.5159182 -0.63984156 -0.81576097 -0.32381132 -1.2578487 -0.046068918 0.1735648 -0.14525196 0.17207314 -0.5640752 0.92710114 0.008119742 0.20358813 0.032732755 0.879514 0.46216166 -0.55920714 0.22883835 -0.31406617 0.11218059 0.37259844 0.44293612 -0.45427763 1.2905512 0.3175822 -1.7326456 -0.2571956 0.5846532 0.4069952 0.5375005 0.62014896 -0.9937168 -0.17597938 0.14280303 -0.5825843 0.20493247 1.3536948 0.71919733 0.6367775 0.061360367 0.6969244 0.23742859 -0.50448465 0.46202847 1.2570206 0.73125845 -0.11919661 -0.7698605 0.17153603 0.69586575 0.24593395 -1.1682726 -0.28461137 -0.38111177 -0.5387187 0.17105412 0.49270928 -0.7962245 1.5266755 -0.6411662 0.3122587 0.26815242 0.5658254 -0.683588 0.2686619 0.4002691 0.6437261 0.28779593 0.35953122 -0.20313805 0.5621216 -1.0100359 -0.18428294 0.19502926 -0.04415227 0.036773227 -0.77487993 -0.6181803 0.3298591 -0.6880613 -0.48891774 0.37748206 -0.25007504 -0.59593403 -0.63099134 0.5587339
교수 0.033809293 -1.1573492 -0.7108408 1.0059264 -0.14830014 0.5492975 0.015167244 -0.19836082 -0.39253366 0.061158456 0.2623161 0.90275687 -1.046116 0.7593474 0.26988617 -0.6892237 -0.97353655 -0.11739514 -1.4761976 0.016825253 0.18026192 0.06834899 0.054979615 -0.57167166 0.79026085 -0.15808773 -0.17634782 0.2770399 0.63852346 0.8380609 -0.65451163 0.28157964 -0.73070663 0.6175846 -0.06198585 0.6019182 -0.2892711 1.4652677 0.84577185 -1.8741362 -0.13929826 0.86189336 0.5204292 0.11567712 0.88395363 -1.0195005 -0.5848005 0.5575252 -0.30122295 0.4840757 2.0551543 0.57749003 0.86701876 0.17222622 0.7112251 0.28485113 -0.66283184 0.39174864 1.0727195 0.6797075 -0.41447806 -0.85713345 0.28175497 1.3782868 0.5057527 -1.3693227 -0.32798776 -0.32030535 -0.7724212 0.7551524 0.4421735 -0.81037563 1.541313 -0.6398874 0.20845373 -0.14620677 0.33428589 -0.8353013 0.6804438 0.39860004 0.07849386 0.54098046 -0.13434605 0.024149861 0.61395746 -1.3016921 -0.37723252 0.27492183 -0.22841622 -0.27377772 -0.9976534 -0.2960295 1.0305386 -0.85533327 -0.69814 0.71061313 0.07801063 -0.34338808 -0.7592391 0.30723044
및 -0.18774451 0.12070435 -0.19071358 0.76643586 -0.085519515 0.3212715 0.09480673 0.09365532 -0.10268497 -0.4231122 0.66915095 -0.03981501 -0.026371041 -0.48075658 -0.8250854 -0.43394887 0.45035475 -0.016153391 -0.431047 0.6066106 -0.5849812 0.0694165 -0.6224735 -0.24323727 0.18256049 0.19464716 0.12938355 0.23717429 -0.20714954 -0.06268784 0.27840817 0.55792785 -0.02128181 -0.11191572 0.39596194 -0.00094104174 -0.22300412 0.55757695 -0.389899 0.58293027 0.08708217 0.52726835 -0.116994545 0.09120474 0.8503347 0.14848249 0.15558118 0.18331501 0.8437665 -0.5367182 0.010155289 -0.38907328 -0.1672129 0.6072627 0.490891 0.013266237 0.3298828 -0.29412726 -0.12696326 -0.08970282 0.2136068 0.42388335 0.038711444 0.11042597 0.63464576 -0.36933583 -0.8665987 0.21249184 0.3800248 -0.21723574 0.26304227 -0.14585096 0.57852215 -0.27635598 0.47487155 -0.31307423 -0.17700069 0.3769824 -0.35115644 -0.29126894 0.5489321 -0.18573835 -0.48754647 0.15567951 0.39091313 -0.70212877 0.0049191616 -0.6948271 -0.2158111 0.0031963456 0.54051507 -0.0645325 -0.06650715 -0.36358783 -0.45424247 -0.23965913 0.458015 -0.066990554 -0.68727964 -0.30946976
모집 0.08636165 -0.21873929 -0.25200713 0.79463893 0.020254754 0.3650578 0.14680749 -0.13775957 -0.19790244 -0.47063053 0.25477958 0.1246341 -0.18237504 -0.4695124 -0.7405779 -0.40548864 0.37766612 -0.106893145 -0.17361152 0.23673448 -0.33556852 0.02780677 -0.327053 -0.072955675 0.0902442 0.5578435 -0.11891229 0.3540087 -0.031771593 0.20279996 0.01442306 0.40283433 -0.054291405 -0.038562696 0.6588953 0.17313698 -0.2710344 0.5396343 0.011023695 0.26447284 -0.07567018 0.4610561 -0.06728399 -0.16716945 0.4801146 -0.115525216 0.15330304 0.4225208 0.59114015 -0.13395278 0.25996128 -0.26026273 -0.14502652 0.5440114 0.47186354 0.025639517 -0.14627925 -0.12504622 0.3111283 -0.062342558 -0.01970658 0.099473834 -0.06863682 0.25532573 0.70818573 -0.389351 -0.67432 0.2251541 -0.014748818 -0.19349658 0.3395611 -0.050858103 0.6571495 -0.24761507 0.36495456 -0.16905576 -0.10798481 0.14460635 -0.027664391 -0.20078868 0.41798225 0.012282054 -0.39154053 0.2936587 0.4297051 -0.614737 0.176446 -0.5050178 -0.32275537 -0.010927294 0.1182362 0.25578687 0.18747862 -0.46141735 -0.5917108 -0.32925817 0.3128129 0.0659089 -0.69775504 -0.10887738
적 -0.29532528 -0.09629578 -0.79437816 0.8699351 -0.1448015 -0.23228483 0.25264174 -0.08706532 0.17142884 -0.3888383 0.44899184 -0.09067168 -0.22277214 -0.15643609 -0.27400437 -0.4373292 0.27303755 -0.058690146 -0.81897897 0.7488397 -0.63177717 0.02960176 -0.46956238 -0.3601134 0.51904386 0.22650486 0.3983139 0.25494346 0.20025627 -0.25816247 0.05587279 0.23659696 0.048883207 -0.36346164 0.35655656 -0.059187677 -0.5937128 0.8791902 -0.13795863 0.19132483 -0.08785778 0.50764436 0.045894448 0.4201695 0.7667424 -0.042241715 0.028363772 -0.09498596 0.16964984 -0.28612742 0.4548032 0.117685035 -0.00057826116 0.4260084 0.53500026 0.1316057 0.49145985 -0.28400832 0.17801006 0.46332225 0.21012688 -0.11191937 -0.35186434 0.011383291 0.40006897 -0.5243094 -0.48962408 -0.07858934 0.11174851 -0.41500086 0.5183117 -0.31089655 0.65782243 -0.59218854 0.43746617 0.04840025 0.2253748 -0.05544587 -0.5343919 -0.4329096 0.8311445 -0.21025577 0.14365843 0.044081446 0.7757174 -0.8352195 0.20498306 -0.4940875 -0.0631137 0.24338806 0.27713042 -0.67812663 -0.2217455 -0.56816524 -0.19248074 0.22085081 0.14127156 -0.5081376 -0.4955247 -0.05371588
프로젝트 -0.3759851 -0.12581661 -0.80493164 1.0071353 0.24693716 0.059022333 -0.003047605 -0.15557034 0.10082196 -0.71865165 0.45176727 0.24180934 -0.31478983 -0.13806856 -0.71191746 -0.4499156 0.17619564 0.088833325 -0.8367071 0.6878133 -0.6522409 0.0026820414 -0.9989268 -0.35415068 0.52039987 0.35088724 0.3147907 0.17164841 -0.28148386 -0.3155817 0.36044967 0.7551842 -0.068744764 0.03738908 0.6043825 -0.21787493 -0.35349697 0.9701499 -0.19105339 0.3115544 0.09613977 0.6664096 -0.064661525 0.44801098 0.6364514 -0.13678351 0.17423584 0.20613447 0.35100403 -0.5199024 0.5794119 -0.082231306 0.24840611 0.8765054 0.45604575 -0.11920091 0.09326698 -0.26449078 0.2615191 0.079201624 -0.04849468 0.43211854 -0.013087928 -0.101530425 0.6890365 -0.34120297 -1.0995406 0.1468467 0.30484897 -0.49680972 0.299718 -0.2838939 0.9651978 -0.92202437 0.46803927 -0.078539625 -0.15134464 0.008653788 -0.04428136 -0.1762618 0.7142526 0.10836423 -0.4804748 -0.02174898 0.64051473 -1.1920407 -0.018507399 -0.9030856 -0.42185044 0.12267851 0.5651759 -0.2744147 0.3412512 -0.17581126 -0.43610492 -0.030379087 0.32460627 -0.3650749 -0.7109613 -0.0040307953
원 -0.29768646 -0.16096649 -0.5555377 0.6902451 -0.044163443 0.45198122 -0.117935486 0.018278668 -0.25667143 -0.45686784 0.54581684 0.26504466 -0.21602947 -0.17270908 -0.5973677 -0.4195115 -0.06673048 -0.018581985 -0.6635187 0.35669833 -0.5147038 0.033185333 -0.5945503 -0.14356743 0.26082924 0.013156986 0.043776736 0.31770787 -0.17917262 0.18157989 0.1147731 0.58023953 -0.41369593 0.25892293 0.18527982 0.030228565 -0.24158432 0.64770895 -0.023098096 -0.087725274 0.021686029 0.7234987 -0.09229212 0.21372297 0.71869355 -0.12668335 -0.29816523 0.33428976 0.4499661 -0.13916595 0.6848345 0.04037905 0.22077371 0.638103 0.5515495 0.12223556 0.06270765 -0.15859248 0.23771052 0.11632756 -0.1839954 0.084810756 0.13132752 0.2720751 0.6059697 -0.5087606 -0.6077158 0.14895235 0.16812517 0.013190346 0.22801675 -0.24428616 0.67785186 -0.514278 0.30623502 -0.26952463 -0.3852181 -0.005232456 0.30759063 -0.050688364 0.23831458 0.1899258 -0.5857889 0.15600078 0.4237801 -0.85270387 -0.1503626 -0.4394409 -0.24828371 -0.15673034 0.34866247 -0.056058154 0.41789857 -0.37138084 -0.5986594 0.1771304 0.3075451 -0.22707626 -0.5363007 -0.37506446
드리다 -0.051671047 0.040677138 -0.5676096 0.9725506 -0.44062042 -0.35755867 0.053722218 -0.028359275 0.36724603 -0.066074684 0.036392745 -0.10472063 0.04229784 -0.19736001 0.10328943 -0.42894953 0.097655125 0.038595214 -0.8341942 0.54658324 -0.20684844 -0.05155911 -0.20381054 -0.5113026 0.50843644 0.018196685 0.5255192 -0.09813054 0.26158142 -0.08966923 -0.12499984 0.41395116 0.07584694 -0.63004977 0.11932379 0.098509274 -0.3537766 0.7877257 -0.3785641 -0.47906247 0.062425703 0.19794181 0.18542403 0.40495816 0.8077482 -0.2869366 0.32692763 -0.22412874 0.08575544 -0.45436957 0.30848885 -0.19019288 0.136035 0.1576018 0.58235687 -0.010757189 0.35744512 -0.19869117 0.16354978 0.5395056 0.2742162 0.062942676 0.037635483 0.054616485 0.27227494 -0.7865729 -0.616887 -0.058707103 0.210726 -0.16719578 0.16151871 -0.6486998 0.76555824 -0.2620563 0.64158726 0.079773255 0.5486588 0.023965353 -0.8393953 0.06010742 0.98548526 -0.2735993 0.48061863 -0.23535891 0.4329498 -0.8986516 -0.06261311 -0.5239438 0.10668825 0.42706507 -0.052687097 -0.7121571 -0.5452476 -0.61697763 -0.2169068 -0.004385965 0.09346439 -0.47061884 -0.35401183 0.29484615
설문 -0.080007374 0.32216826 -0.48065624 1.2691125 -0.4375976 -0.47929198 -0.16584751 -0.11527374 0.5118089 -0.24059677 -0.0036190494 -0.13311686 0.3454395 -0.34556964 -0.08719993 -0.56323266 0.2511095 -0.0026419961 -0.79604673 0.5786708 -0.3523351 -0.065606706 0.03855922 -0.56087846 0.5670516 0.19260639 0.79180455 -0.19654322 0.22809596 -0.13824408 -0.1206863 0.5453919 0.10598645 -0.9295453 0.3820968 0.036785334 -0.3739308 0.8230496 -0.9272554 -0.2655714 0.06985451 0.15135959 0.13250065 0.4742934 0.9124876 -0.2773579 0.6705595 -0.377264 0.33170727 -0.81940055 0.0315512 -0.37523526 -0.028388837 0.29006252 0.7766912 -0.10208042 0.4079115 -0.1970559 0.095144436 0.504017 0.29565486 0.06606383 -0.023143938 -0.19718571 0.28189716 -0.6496983 -0.9283744 -0.04313296 0.38666698 -0.46527162 0.25514638 -0.64735866 0.9631965 -0.27560365 0.8382681 0.16573031 0.5353611 0.27210215 -1.1033084 0.004181033 1.2965726 -0.31330246 0.65145874 -0.43120787 0.39353856 -0.9066288 0.009493451 -0.72112113 0.22198926 0.53216654 0.27573112 -0.79211587 -0.8532795 -0.57521725 -0.27896085 -0.28152362 -0.013982653 -0.6172523 -0.46706328 0.3362598
예정 -0.064283505 0.14891574 -0.19641778 0.6309442 -0.20673093 -0.22463553 -0.022830188 -0.02364376 0.13941559 -0.22047928 0.22717418 -0.19867894 0.14221032 -0.30076942 -0.20509428 -0.40348244 0.43014392 0.029731162 -0.2752068 0.53489983 -0.23505175 -0.07784293 -0.121665426 -0.4998978 0.25741807 0.28700188 0.50983506 -0.12794505 -0.2634653 -0.08995806 0.12943624 0.2863828 0.23112059 -0.53838927 0.3242359 -0.06361803 -0.38369295 0.62069654 -0.6325173 0.19441205 0.013658444 0.2481153 -0.026129711 0.22532284 0.5654204 0.015171087 0.47614768 -0.14904325 0.48271233 -0.3728469 0.20551762 -0.39515737 -0.0025228292 0.5382758 0.45805395 -0.14001927 -0.10613745 -0.17874599 -0.012751 0.07210927 0.05376802 0.40888268 -0.037999243 -0.10560265 0.33576655 -0.45165154 -0.8855739 0.09839374 0.4624759 -0.1785235 0.24591313 -0.15294053 0.5598648 -0.29847625 0.5661137 -0.095080525 0.2510538 0.3897688 -0.74187285 -0.07670731 0.7280307 -0.33462906 0.30366865 -0.30026284 0.2334246 -0.6757492 0.2042667 -0.5020724 -0.18169643 0.06689419 0.10759241 -0.15183951 -0.4136433 -0.53785104 -0.32614726 -6.4863874e-05 0.2312828 -0.23559129 -0.2578926 0.09534564
오다 0.05515653 -0.37018576 -0.25988996 0.72369033 -0.04226196 -0.0019055294 0.1410552 -0.09319217 0.051208504 -0.23681526 -0.030031528 0.103621975 -0.4225797 -0.025484914 0.04072565 -0.3971376 0.021726916 -0.17934766 -0.682311 0.2738316 0.015379588 -0.033469614 -0.20558654 -0.32453203 0.39775407 0.2969557 0.24273258 0.15508792 0.45628765 0.26417056 -0.30394098 0.07857444 0.14550625 0.018514706 0.30359817 0.15096845 -0.3989575 0.654543 0.23897503 -0.69274586 -0.087783396 0.35298377 0.3968423 0.013739899 0.5578913 -0.32909372 0.05721507 0.17091414 -0.011695383 0.31164163 0.56515855 0.22805548 0.3574863 0.22019112 0.43620017 0.086978324 -0.048993442 0.16240877 0.46652788 0.343486 0.17959207 -0.23330382 -0.03282711 0.47604504 0.45895785 -0.64194226 -0.499258 -0.09164686 -0.27594626 0.015695434 0.29679164 -0.33175516 0.68677044 -0.32267013 0.19801709 -0.03742534 0.40055817 -0.12283826 -0.19920506 0.061165266 0.48752668 -0.17667806 -0.08724606 0.11857964 0.5307137 -0.6103499 -0.07574995 -0.25738406 -0.30899918 -0.07202978 -0.55547863 -0.23314375 -0.0023008685 -0.62822413 -0.08675448 0.24410199 0.13291608 -0.17139736 -0.41514987 0.2548616
공지 0.112826444 0.07638621 -0.17128229 0.3421338 -0.44251147 0.0021401641 -0.025843272 0.40830186 -0.2253419 -0.14568499 0.18827036 -0.19657746 0.18229866 -1.0058852 -0.39846048 -0.24740642 0.6796457 -0.29994363 -0.23993467 0.55351967 -0.24926949 -0.23637512 -0.60688066 -0.19287065 0.32636973 -0.10731249 -0.009572801 -0.078629285 -0.08397711 0.0027038592 0.11710817 0.16374926 0.5342723 -0.27726397 0.25583473 -0.380792 -0.23866414 0.12100522 -0.75499624 0.33836237 -0.29155758 0.14696272 0.1720117 -0.010443935 0.9641207 0.026084196 0.032889828 0.07290565 0.5708199 -0.056587726 -0.21244286 -0.06301667 -0.17087778 0.2169316 0.43469217 0.021621328 0.36405966 0.2532445 -0.229386 -0.19014782 0.41642058 0.3154507 0.27369344 0.10224578 0.45528176 -0.9551922 -0.6777257 0.5443664 0.42770767 -0.09426804 0.2686895 -0.17045447 0.27262777 0.13486117 0.26728478 -0.27072942 0.02230546 0.4589242 -0.5627716 0.07702483 0.4404098 -0.8166484 -0.16631761 0.45888487 0.24493931 -0.88376033 0.45148763 -0.722069 -0.17968845 0.3144347 0.21618776 0.10479201 -0.5523044 -0.18752785 0.13044134 -0.42451265 0.5461386 -0.42700824 -0.45457926 -0.40644383
초대 0.1528402 -0.9289521 -0.5783931 0.80781376 -0.45150182 0.36154324 0.16087267 0.045835532 -0.25750798 0.21172446 0.24289498 0.4338598 -0.6319956 0.42206478 0.17919855 -0.60679466 -0.7142662 -0.062432136 -1.0677091 0.092653856 0.17100821 0.17247361 0.093338236 -0.35696843 0.5347673 -0.180298 -0.070768416 0.12524325 0.5440549 0.69809747 -0.4695361 0.16707343 -0.48748794 0.14535289 -0.18796954 0.5601573 -0.33242202 1.2226647 0.56964314 -1.4698733 -0.19271317 0.6845165 0.24820906 0.18014942 0.72264475 -0.71734107 -0.5208858 0.31467173 -0.16977914 0.26469436 1.4840832 0.3922303 0.4424691 -0.051821824 0.5165791 0.30321595 -0.3462339 0.28910202 0.8049646 0.62006426 -0.119159944 -0.65270346 0.10332926 1.0524348 0.287714 -1.3300825 -0.22382668 -0.19429094 -0.43188122 0.7985357 0.34109297 -0.7502694 1.1588339 -0.27410772 0.24409038 -0.067887 0.36187032 -0.4735825 0.19960046 0.2949697 0.1952964 0.227724 0.10802277 0.06800778 0.43049374 -1.0223503 -0.20976809 0.31372598 -0.027237857 -0.052779634 -0.94339424 -0.38478217 0.55591774 -0.75152034 -0.6216215 0.3615469 0.13039419 -0.2699903 -0.64540315 0.16187556
주 0.2051003 -0.4069359 1.1898128 0.51442677 -0.9215856 0.8927451 0.3482067 0.3081566 -0.5630555 0.4693214 0.85095966 -0.22685175 -0.2276308 -0.1855601 -0.7078881 -0.62384856 0.16801247 -0.037278038 -0.15145144 0.116293885 0.29618654 0.4096409 0.60363555 -0.2554513 -0.4416401 0.10309885 -0.17689584 0.23720862 0.074219175 0.90651333 -0.409966 -0.064404644 -0.25102618 0.0074228286 0.0398384 0.8771966 -0.009878647 0.15891008 0.18624538 -0.031115025 0.25198475 0.108631626 0.21985246 -0.93057483 0.8179633 0.27246612 -0.03205451 0.41576487 1.1682516 0.2527856 0.48769364 -0.5874874 -0.17530136 0.16279222 0.39145574 0.1843669 -0.14338039 -0.2454795 -0.08904402 -0.14306515 0.3065758 -0.51036274 -0.00077378715 1.4937738 0.67217946 -0.6144032 -0.40041125 -0.16808014 -0.34330317 0.5776781 0.31408337 -0.01802092 0.12895437 0.45653912 0.16118944 -0.46312398 0.24772474 0.2865924 -0.41084108 -0.30638167 -0.14666928 -0.12945549 -0.24622484 0.20313957 -0.020006286 0.1043397 0.058968373 0.22164327 0.15864483 -0.5782907 -0.9677604 0.2981132 -0.22398014 -1.2873837 -0.70041835 0.13728906 0.35492477 0.93216574 -0.47285697 -0.22891548
되어다 -0.026850192 -0.0006983938 -0.045642264 0.81207633 -0.30787542 -0.02697186 0.1445362 0.074326925 0.1693117 -0.106723875 0.20466654 -0.1266366 -0.05001186 -0.25372705 -0.28995606 -0.4294205 0.27815807 0.019352058 -0.47485477 0.51434124 -0.16316323 0.074086025 -0.24378027 -0.3522545 0.17126307 0.23050077 0.328341 0.03915454 0.09261186 0.0856021 -0.04782345 0.35523033 0.09512002 -0.418382 0.23945695 0.20783406 -0.21040703 0.59991324 -0.24346781 -0.05356771 0.15156908 0.21406898 0.14628989 0.014689153 0.6799526 -0.03828475 0.38482025 0.06530446 0.4629919 -0.3730317 0.16852187 -0.42436522 -0.0005496032 0.3074307 0.40426838 -0.05805083 0.2599662 -0.25238946 0.019224383 0.24346231 0.2599094 0.1981792 -0.03397917 0.25574127 0.4679187 -0.49305362 -0.74133754 -0.032758623 0.177551 -0.11056353 0.18546005 -0.36940822 0.52659994 -0.18433473 0.49178827 -0.14944224 0.3700914 0.19094834 -0.6993405 -0.08632458 0.6697164 -0.28323174 0.017879536 -0.048067175 0.31775993 -0.64317626 -0.037309587 -0.5413457 -0.10752719 0.13061206 -0.11862135 -0.30490103 -0.29783416 -0.60230833 -0.3078166 -0.02344583 0.2754827 -0.042851843 -0.45278677 0.15450339
학생 -0.08146543 -0.16037866 -0.67328984 0.948975 0.12909901 0.16457357 0.035399117 -0.31850818 -0.04556512 -0.6904307 0.25388265 0.19817898 -0.29274395 -0.27429345 -0.5274719 -0.50527424 0.18086205 -0.19217464 -0.5081395 0.41335115 -0.48714995 -0.0793157 -0.4397606 -0.16587572 0.34994304 0.50619674 0.11449636 0.3014848 0.12308581 0.017604874 0.09483282 0.40267423 -0.037348364 -0.015098128 0.7925877 0.053859435 -0.49998283 0.68744814 -0.10386696 0.11722171 -0.21355347 0.5467509 -0.0010098953 0.2460308 0.5640843 -0.18555492 0.111446634 0.20279838 0.2749862 -0.10210347 0.37475738 0.1584266 -0.024239317 0.577926 0.61218 0.1293429 -0.0030998816 -0.09709449 0.54149127 0.14431822 0.03605523 -0.07241494 -0.14244995 0.075875044 0.6065894 -0.37370485 -0.5954337 0.09613089 -0.0047733313 -0.41240534 0.52540714 -0.14481364 0.7579835 -0.5762843 0.36283344 0.020340621 -0.06588818 -0.052739028 0.011197872 -0.21021253 0.6410184 0.016500512 -0.22565858 0.13625039 0.595847 -0.6664996 0.19690454 -0.44824764 -0.26637074 0.047185693 0.25637445 -0.082468346 0.15184674 -0.4507461 -0.49287274 -0.07850417 0.10063205 -0.28025988 -0.6815139 -0.053892687
보다 -0.03975718 -0.15960808 -0.60026485 0.84848994 -0.2539942 -0.093085945 0.10841471 -0.107682474 0.17484091 -0.15461197 0.12690277 0.028697269 -0.16480611 -0.062382024 -0.04161991 -0.46696484 -0.0557818 0.0093001835 -0.8064191 0.46777838 -0.25586015 -0.020163529 -0.26879632 -0.3606239 0.45225608 0.07702954 0.3532541 -0.025484858 0.1662015 -0.0077975737 -0.09022631 0.35228238 -0.026557846 -0.3761531 0.2339267 0.119971305 -0.39287612 0.80921423 -0.1513253 -0.35613123 -0.044059154 0.35877046 0.12887315 0.33615267 0.6353327 -0.24526362 0.11662074 -0.060326908 0.06845269 -0.28976613 0.4984524 -0.008501848 0.16441822 0.28402007 0.5352818 0.04904763 0.10048589 -0.130163 0.31884944 0.44447988 0.19204053 -0.059713546 -0.033903733 0.14353874 0.32687262 -0.6772908 -0.53877795 -0.06782272 0.03737377 -0.07587468 0.31851467 -0.5112617 0.8083532 -0.44353458 0.43931466 0.098891854 0.36210892 -0.09826479 -0.46706653 0.027916985 0.78583854 -0.14358851 0.19725187 -0.16232897 0.41940117 -0.8642059 0.032825675 -0.39519206 -0.03917519 0.22699338 -0.09702137 -0.47942907 -0.09338229 -0.48478666 -0.30162278 0.08407661 0.10648648 -0.41724238 -0.44161808 0.16044472
사람 -0.1918391 -0.24219997 -1.1582773 1.1994473 0.124299236 -0.14432222 0.14671887 -0.4009309 0.2948203 -0.70709723 0.0074606854 0.18779798 -0.33164883 -0.15858714 -0.23748858 -0.5185806 -0.049775917 -0.07270783 -0.97709394 0.68518156 -0.62050366 -0.28582668 -0.8238647 -0.24034356 0.69526976 0.46120504 0.3336395 0.085604295 0.15672016 -0.27060896 0.064441174 0.52512574 0.18882483 -0.25258768 0.7609329 -0.109855235 -0.6074617 0.9809906 -0.11190719 -0.06302848 -0.22595473 0.4578727 0.2996118 0.5806045 0.62007457 -0.36508325 0.27222866 0.068152085 -0.19941096 -0.25512907 0.5675905 0.27498358 0.21432015 0.5184546 0.6309613 -0.024434058 0.20790058 -0.007305618 0.70103014 0.40353134 0.18528973 -0.029931413 -0.2552155 -0.25150576 0.59934914 -0.6087862 -0.63809973 0.07173263 0.080927335 -0.5075694 0.6049615 -0.42717785 0.933926 -0.9036451 0.4384776 0.31278923 0.21789153 -0.2508751 -0.17125624 -0.13264771 1.0002546 0.003784362 0.06905959 0.028864268 0.7450577 -1.1446798 0.23464334 -0.707273 -0.2849833 0.34489506 0.2706504 -0.60550475 0.16737741 -0.31615043 -0.27594355 0.053546578 0.12135764 -0.68192935 -0.6430502 0.22013462
이번 0.10755536 -0.36214125 0.4705514 0.48921025 -0.32756117 0.78767806 0.26953816 0.052210677 -0.44076976 -0.14658481 0.6439062 0.074912235 -0.29787016 -0.2752459 -0.8837256 -0.45402843 0.3497277 -0.16990164 0.05600278 0.16308224 -0.1724936 0.1802491 -0.100720726 -0.06360514 -0.32481584 0.5203847 -0.30212265 0.4061331 -0.11889886 0.5910661 0.11172751 0.21307985 -0.22082767 0.15322292 0.39798906 0.43757856 -0.19660479 0.35891363 0.23950106 0.4125523 0.17691204 0.44081274 -0.15085784 -0.537283 0.49649036 0.2024807 -0.0720813 0.62046194 0.97357965 0.19018778 0.3898753 -0.6115088 -0.26995066 0.47073182 0.31564072 0.16274911 -0.27176797 -0.22222231 0.12500712 -0.2819567 0.0012994853 -0.003416294 -0.020088658 0.8943408 0.7137145 -0.2695046 -0.59526646 0.06176327 -0.106465064 0.10926898 0.3116489 0.055199828 0.26767015 -0.05628918 0.1759351 -0.42060864 -0.13897644 0.26777276 0.07668851 -0.24837774 0.05852436 0.02774879 -0.7476325 0.25412953 0.22673035 -0.1759088 0.14462748 -0.1890788 -0.26688862 -0.41700217 -0.33888438 0.48115316 0.3429612 -0.72258 -0.6822084 0.026867434 0.41172615 0.72406614 -0.7225781 -0.38128075
기간 0.13736942 0.1861539 0.88738316 0.87993264 -0.8953298 0.30041358 0.28186706 0.46487135 0.015795467 0.25376198 0.5228665 -0.48976925 0.3400135 -0.6818918 -0.8474892 -0.58842576 0.6879082 0.08865889 -0.08211019 0.44963002 -0.15337642 0.2813482 0.14679483 -0.2862866 -0.34585753 0.31141168 0.3563037 0.052439537 -0.015253353 0.48781973 -0.07964602 0.3648152 0.010709777 -0.81231946 0.018775854 0.5406594 0.035694517 0.44445917 -0.6086627 0.46257994 0.46351337 -0.013556775 0.08870238 -0.63657045 0.98440677 0.30242756 0.5890286 0.15839553 1.3235893 -0.6177361 -0.30641803 -1.2572182 -0.42424902 0.28579754 0.43355832 -0.13443804 0.47656214 -0.5391756 -0.5711191 0.008051573 0.4967805 0.2653336 -0.049405936 0.68319356 0.56767 -0.5084379 -1.0126494 0.04434552 0.45133388 0.043220963 0.10990947 -0.2461277 0.32672045 0.44745615 0.6547163 -0.5256836 0.3681334 0.7828785 -1.2546221 -0.23012856 0.6032608 -0.5349333 -0.08312835 0.005641948 -0.03842567 -0.2390586 -0.063938156 -0.5741194 0.19669764 0.020676546 -0.16149402 -0.016041422 -0.75459504 -0.98820496 -0.5742123 -0.34677845 0.551668 0.5139539 -0.6141201 -0.17377363
수업 -0.2548225 -0.30436975 -0.785391 0.59272647 0.3181063 0.3413523 0.040038776 -0.13955913 -0.18910436 -0.7558724 0.611513 0.2961725 -0.6189218 -0.087699875 -0.45783406 -0.3571225 0.06873361 -0.1187994 -0.74724257 0.62027824 -0.51170707 -0.11061514 -0.9289066 -0.25138417 0.5054525 0.17541845 0.06668365 0.3051021 -0.13419062 -0.107736185 0.3645141 0.3977005 -0.0030559578 0.473132 0.6156413 -0.20886236 -0.6108581 0.775309 0.20462327 0.07252848 -0.2291057 0.92480433 -0.067578 0.47909456 0.6352644 -0.023603642 -0.25034395 0.26849806 0.3381357 0.041273896 0.6892966 0.39853594 0.21280962 0.73928237 0.528948 0.19770737 -0.045280896 -0.023655316 0.4561479 0.08515258 -0.022324452 0.1989964 0.081311814 0.14514077 0.6701586 -0.45884657 -0.75354284 0.13560662 0.05916526 -0.12008585 0.40823597 -0.15893112 0.7761459 -0.8244372 0.18907405 -0.2006398 -0.2220252 0.00011415518 0.2528823 -0.08690053 0.46611932 0.010288393 -0.6718174 0.16204236 0.6328702 -0.99478734 -0.01783326 -0.5228343 -0.58907825 -0.17981839 0.23999524 -0.043856245 0.5585278 -0.24543008 -0.36396194 0.25591612 0.34543005 -0.31558836 -0.6246479 -0.25414696
혹시 0.063569754 -0.3498576 0.36746997 0.19815372 -0.39902794 0.4358088 0.45920932 0.26141217 -0.44574562 0.01882257 0.5220551 -0.22713704 -0.45384583 -0.1828938 -0.1275333 -0.42863482 0.20802633 -0.2711316 -0.47606903 0.38787907 -0.0016374191 0.08719747 -0.089466065 -0.1075239 0.07865334 0.15276584 -0.050666716 0.2830934 0.34575444 0.52108735 -0.25421003 -0.27457952 0.16619915 0.1861402 0.13688634 0.2310791 -0.5164267 0.2353398 0.24713808 -0.1756912 -0.20374572 0.3770137 0.32676643 -0.2517335 0.792428 0.18347193 -0.19678581 0.20356217 0.5713637 0.720227 0.3826993 0.19552237 0.05601465 0.074411035 0.41672087 0.32459116 0.24131443 0.22242083 0.04885478 0.022076182 0.34608015 -0.34482938 -0.19768177 0.7870272 0.5518319 -0.51122415 -0.17000835 -0.11913577 -0.17868705 0.42083952 0.5349503 0.02266475 0.034014296 0.09418728 0.00793753 -0.25185874 0.2529026 0.21507336 -0.31045514 -0.33412892 0.08713921 -0.4428624 -0.3578288 0.3985674 0.36423132 0.06634399 -0.011293328 0.09792726 -0.28089294 -0.44817784 -0.6243761 -0.022001734 -0.15123412 -0.9824342 -0.1002605 0.4690867 0.32582787 0.2084274 -0.2390861 -0.30031908
중 -0.07056856 0.026459107 -0.1303377 0.8755011 -0.20089789 0.024891537 -0.0009649134 -0.081579395 0.15893923 -0.26034835 0.31929564 -0.02433659 -0.043397132 -0.083113186 -0.37908223 -0.43338898 0.17880154 0.008679173 -0.34421098 0.34740496 -0.25944299 0.036155015 -0.14040616 -0.33290315 0.1735575 0.26954395 0.32314345 0.13156746 0.07172308 0.035038695 0.048527397 0.43711254 -0.13429327 -0.32738176 0.37292022 0.26065096 -0.19611567 0.7013854 -0.19159482 0.03229958 0.23234968 0.33680716 -0.10597451 0.08602497 0.52361757 -0.03366813 0.31354752 0.11357007 0.51082 -0.49535367 0.12119457 -0.4473352 -0.1276705 0.4038133 0.4342247 -0.013178112 0.055957172 -0.37450343 0.17287302 0.20932291 0.06811779 0.18085305 0.032149754 0.22388676 0.39083245 -0.33229044 -0.7730932 -0.10259448 0.1908931 -0.25742206 0.12592183 -0.383496 0.6640294 -0.26340014 0.510406 -0.17410809 0.22374938 0.16973175 -0.45865747 -0.014088578 0.6817397 -0.009965592 -0.03055978 -0.15541224 0.2806146 -0.57824004 -0.08914368 -0.44231156 -0.026620155 0.08908566 0.0112560475 -0.22846912 -0.18860166 -0.49615854 -0.512529 -0.07955119 0.12628378 0.09091802 -0.51267815 0.13874225
좋다 -0.050965555 -0.1548638 -0.7895217 0.9597262 -0.118440695 -0.37736344 0.14431225 -0.3349315 0.2517368 -0.31120148 -0.08459469 0.020833157 -0.13931334 -0.11203498 0.14593647 -0.47434258 -0.023545321 -0.13021043 -0.9869928 0.50145495 -0.30229706 -0.18869975 -0.25594556 -0.39327666 0.6783099 0.25243455 0.43138745 -0.040229596 0.32526326 -0.10990068 -0.18657443 0.20118903 0.06327879 -0.32127145 0.4346122 -0.0022865853 -0.5596677 0.7428746 -0.2311039 -0.49877825 -0.23310857 0.24959162 0.27961192 0.43863916 0.7150121 -0.34261608 0.20998678 -0.10780643 -0.21822688 -0.030292638 0.5511291 0.24555473 0.3105447 0.24900447 0.6851248 0.11560839 0.20373434 0.03501435 0.4893213 0.51486826 0.27828267 -0.30590805 -0.18962614 -0.014960283 0.3415569 -0.6130467 -0.39163595 -0.053493086 -0.08350225 -0.24859944 0.47306755 -0.46809945 0.7785842 -0.5417097 0.41397274 0.28217122 0.43364087 -0.22649196 -0.48775923 -0.11369981 0.9084775 -0.14907622 0.38606 -0.18741292 0.6441132 -0.8509009 0.18859217 -0.4374944 -0.06610379 0.2880275 -0.06500895 -0.7277908 -0.23645753 -0.5525496 -0.08365599 0.1507068 0.022503138 -0.67949206 -0.34098035 0.257687
아 -0.0642395 -0.43820852 -0.5466027 0.6482868 -0.35406074 0.69662535 0.18172944 -0.36563966 -0.52257264 -0.43309733 0.0813855 0.40697128 -0.39636225 -0.4106395 -0.55063695 -0.66170865 -0.18916744 -0.62284356 -0.8655002 0.3383482 -0.6256822 0.044969823 0.09298646 0.19981591 0.056460947 0.55063534 -0.06685365 0.3173417 0.5231547 0.7553529 -0.22936575 0.030484779 0.07771718 0.2658271 0.6698822 0.26401597 -0.9271649 0.2762153 0.09309418 -0.2177576 -0.75536597 0.7519241 0.6376627 -0.08565004 1.0311389 -0.218039 -0.3367023 0.092855655 0.19096051 0.6912241 1.0225985 0.77744114 0.046941336 0.28607318 1.0770874 0.49441198 0.3549631 0.45424932 0.8731645 0.18353027 0.027048657 -1.0947542 -0.7302685 0.4525003 0.98193365 -0.4919769 0.21845914 0.25533894 -0.38110748 0.070452884 1.383852 0.18777594 0.31329745 -0.21532217 -0.102047354 0.33497557 -0.37180102 -0.2997622 0.36639148 -0.7207061 0.17038158 -0.24161099 -0.46768355 0.3403649 0.60047245 0.12840697 0.5666919 -0.092835315 -0.3326205 -0.30887747 0.07698749 -0.07525726 0.30302146 -0.9794526 -0.16644412 0.54040956 -0.0039088246 -0.55787045 -0.4643489 -0.40324074
석 0.14522356 -1.2714497 0.15143898 0.14070109 -0.6056066 0.8720129 0.8983022 0.4157139 -1.111236 -0.13607357 0.7493128 -0.0031234268 -0.7837418 -0.106782354 -0.052349776 -1.0521477 0.08211582 -0.42369172 -0.8938785 0.4548589 0.19456096 0.05847578 0.083675735 -0.22957009 0.40036413 -0.012712519 -0.07655975 0.066105545 0.17306131 1.3975296 -0.4258914 -0.6839598 -0.3407705 0.19450355 0.17685495 0.6529206 -0.97391135 0.6191971 0.6467614 -0.55150896 -0.44608054 0.8707578 0.16243233 -0.12727188 1.0044863 -0.2569787 -0.71606624 0.11554625 0.43197975 1.1757976 1.4018482 0.9437129 0.15433781 -0.032195598 1.0851517 0.94992137 -0.48142534 0.68321353 0.6019704 0.10351182 0.017292675 -0.9617979 -0.47285444 1.3699846 0.4055403 -0.85769343 -0.26108572 -0.051745284 -0.742665 1.1240617 0.8831139 -0.11691494 0.70635194 -0.060762376 0.31544396 0.05394026 0.44639906 0.4625446 -0.23627995 -0.24175222 0.081899725 -0.41663876 -0.24587314 0.1668016 0.44318578 0.02539487 0.47909364 0.7284613 -0.66842705 -0.6100707 -1.2838055 0.36826915 0.54679555 -1.097581 -0.3286647 0.456315 0.50682074 -0.15260915 -0.5723024 -0.29085302
링크 0.02055704 0.2611381 -0.22758313 0.88395905 -0.5965693 -0.18819328 -0.09108969 0.17171794 0.15835345 0.0433685 0.19337243 -0.31052086 0.28336087 -0.45666304 -0.055964366 -0.53862655 0.2692151 -0.03120607 -0.56206954 0.5250264 -0.22216713 -0.055173248 -0.010528274 -0.44424376 0.3870986 -0.18546103 0.48465246 -0.18144602 0.24694213 0.024588814 -0.1298106 0.36636811 0.10534742 -0.75896966 0.1090403 0.08084144 -0.20298849 0.59596413 -0.8236306 -0.17123006 0.009551671 0.15152629 0.10692179 0.31671214 1.0641031 -0.14856935 0.2688348 -0.23826349 0.5158513 -0.578138 -0.08366046 -0.31434718 -0.096802086 0.19937995 0.6488397 0.043902736 0.39669243 -0.08440797 -0.08259697 0.401111 0.42074585 0.19702356 0.17018981 0.1743347 0.1820221 -0.8195141 -0.6436936 0.04044236 0.45397007 -0.04518337 0.21355236 -0.5030368 0.7520834 -0.008674222 0.73430884 -0.10105998 0.47083366 0.34929892 -0.9899024 0.1226879 0.91468954 -0.5648645 0.45928386 -0.21103333 0.21450588 -0.6953441 -0.049341183 -0.4558149 0.26604393 0.34796998 0.12481396 -0.42632437 -0.8333815 -0.6703405 -0.3578371 -0.20035401 0.15129463 -0.42704624 -0.4373433 0.0056205746
단 0.3238066 -0.5359263 -0.14794995 1.0040004 0.3657445 0.55526924 0.2892282 -0.3664935 -0.65838975 -0.8704294 0.10523233 0.2294387 -0.41922736 -0.76088536 -1.0152088 -0.77717704 0.76798785 -0.5473872 0.055095382 0.1284727 -0.40902263 -0.21416895 -0.08654041 0.095082104 0.13970773 1.2067221 -0.43158463 0.45074743 0.13551866 0.595871 -0.041511714 -0.063430004 0.044483535 0.2686179 1.3189839 0.20495366 -0.6177765 0.5821829 0.03915724 0.5059995 -0.5454516 0.54804397 0.038874906 -0.27266005 0.514094 -0.09211724 0.051844873 0.640099 0.81808925 0.56313294 0.42732656 0.13345715 -0.27483216 0.7647797 0.7579797 0.27502713 -0.66593695 0.13329291 0.80016774 -0.36229846 -0.08692957 -0.20111245 -0.4015553 0.5000748 1.0881704 -0.39921024 -0.6010989 0.43059376 -0.37717482 -0.2524849 1.0366238 0.44465157 0.7605419 -0.4256759 0.27332932 -0.13757035 -0.23824456 0.058842674 0.184537 -0.43834272 0.26144397 -0.041279692 -0.4229709 0.5089178 0.72755814 -0.28017062 0.60186297 -0.20374753 -0.6786919 -0.29859543 -0.098639235 0.76935196 0.20006175 -0.8853994 -0.74045646 -0.5437479 0.26028052 0.117016055 -0.86143315 -0.29482555
통해 -0.04464635 0.019316742 -0.98499316 0.95753247 -0.46772715 -0.20176946 -0.09275725 0.063916944 0.25294483 -0.14531219 0.2502467 -0.07000169 0.06724877 -0.25380307 0.11406908 -0.47753033 -0.010656932 0.084292725 -0.81052244 0.57895565 -0.25108683 -0.05241268 -0.39585927 -0.4647556 0.6395606 -0.34889027 0.41402623 -0.16046587 0.10076362 -0.17966695 -0.005716655 0.56463194 -0.11520795 -0.6174057 0.12091193 0.031070061 -0.38774747 1.0230664 -0.48583838 -0.3916769 -0.12051099 0.549502 -0.10912302 0.7136221 0.89063525 -0.29989204 0.0015789919 -0.24276769 0.20076779 -0.6926678 0.34792474 -0.01572053 0.046097398 0.29849538 0.65689677 0.07748451 0.18199036 -0.20652428 0.28621584 0.64311093 0.19074467 0.23405173 0.2627766 -0.0094056185 0.14445406 -1.0261399 -0.71104926 0.05159689 0.39091545 0.034105748 0.18233423 -0.7491501 1.1029664 -0.45749265 0.76854557 -0.020924078 0.43860036 0.041884944 -0.7217531 0.40971106 1.024568 -0.31411687 0.45477983 -0.26152724 0.4037501 -1.2399422 -0.06568188 -0.46693647 0.16658735 0.48963782 0.12679665 -0.4369696 -0.3587438 -0.43918532 -0.53292185 -0.15296228 0.123209946 -0.6967079 -0.53051186 0.096749306
위해 -0.045749538 -0.32452658 -1.120609 1.0684108 0.21286653 -0.08797138 0.021052552 -0.30570656 0.19972846 -0.63232535 0.032618556 0.3949904 -0.41876128 0.0013913492 -0.14245307 -0.4216334 -0.05834548 -0.006219083 -0.86216295 0.41688356 -0.33249432 -0.046885945 -0.58878034 -0.33488077 0.6631475 0.29061118 0.24458168 0.16094999 0.15868415 -0.13797742 0.041959483 0.46926683 -0.036529917 -0.016024187 0.58835447 -0.04943104 -0.5442276 1.064306 0.16049859 -0.44628283 -0.22193538 0.6590831 0.06016997 0.5434675 0.48178813 -0.4422183 0.038424917 0.09135089 -0.13871944 -0.17689675 0.7567015 0.3343764 0.3383281 0.5435306 0.5697663 0.05159516 -0.19087136 -0.054857947 0.7523065 0.46875644 -0.0051933895 0.022559663 0.0011702004 0.012430979 0.50864786 -0.64229625 -0.71507365 0.016913757 -0.090691805 -0.25546584 0.39934418 -0.466924 1.1246495 -0.8800277 0.44224393 0.12495399 0.18305849 -0.3337803 0.014316152 0.16014536 0.7843659 0.12990157 -0.026401468 -0.032623988 0.70061576 -1.1949916 -0.0032481563 -0.50481224 -0.32376298 0.18184939 -0.005397737 -0.31332785 0.30404636 -0.31218842 -0.42292514 -0.029362617 0.043196812 -0.5762487 -0.6646922 0.3209796
요 -0.01658228 -0.04328095 -0.1320808 0.8061391 -0.3463934 -0.059561647 0.177177 0.010627265 0.16956888 -0.07621575 0.1732198 -0.1538576 -0.021964781 -0.1628003 -0.17946406 -0.427461 0.15670325 0.012960133 -0.6261779 0.48792824 -0.21572034 0.01393786 -0.13194218 -0.3218971 0.23911095 0.243419 0.3817062 0.0217278 0.16317064 0.09419596 -0.14244407 0.23646979 0.06232583 -0.43310738 0.19189839 0.2129262 -0.31751326 0.6156421 -0.2194875 -0.12452618 0.10307815 0.19725427 0.20051454 0.018371262 0.6865128 -0.08846452 0.30510342 -0.039573155 0.34281892 -0.21007238 0.24196091 -0.28895998 0.046049275 0.19311765 0.47685656 -0.0065979455 0.2419633 -0.18589123 0.07548866 0.29301873 0.2829748 -0.042988762 -0.11059639 0.25012603 0.39738128 -0.48997474 -0.5995933 -0.0797011 0.10095276 -0.050561097 0.26771015 -0.37153238 0.5349089 -0.16022862 0.42324615 -0.0356288 0.4036099 0.13965628 -0.6566581 -0.11585736 0.6641702 -0.2310632 0.12671626 -0.088907056 0.3549411 -0.56315684 0.008745804 -0.40912804 0.00875773 0.13377818 -0.18618035 -0.4113663 -0.31984678 -0.66458327 -0.24508925 0.059198238 0.19239388 -0.12339954 -0.3587042 0.12976794
베다 -0.045433056 -0.3286063 1.1347836 -0.13842966 -0.46389896 0.5368199 0.67701256 1.1842318 -0.41814962 0.04436739 1.0214229 -0.88418984 -0.80055445 -0.5728356 -0.09415735 -0.11180299 1.0758911 -0.20341232 -0.47961596 0.94373405 0.25279602 0.4393896 -0.5710532 -0.24600056 0.04550503 0.08851642 0.18578927 0.6097905 0.6744855 0.5810681 -0.22805846 -0.71934706 1.003092 0.413943 -0.19487613 0.2100723 -0.7830503 0.017501185 0.58727974 -0.20970751 -0.21526805 0.46970543 0.80614954 -0.35923684 1.5555482 0.66629094 -0.05057628 0.17325854 1.3177774 1.0996045 -0.14266555 0.16496596 0.10026973 0.30165765 0.22488604 0.39529267 1.1564691 0.21318148 -0.64233166 0.024591228 1.0176653 0.41835347 -0.02367242 1.3414385 0.97436726 -0.43952814 -0.81356984 -0.16840662 -0.1058889 0.7785002 0.16026235 0.103594765 -0.58496296 0.2779808 -0.0002957836 -0.95600593 0.64980024 0.9182308 -0.9929559 -0.36493647 0.22717685 -1.3791633 -1.0545768 0.9148461 0.68133324 0.16938645 -0.6255178 -0.5512113 -0.97262055 -0.9173784 -1.0400639 -0.16357422 -0.714041 -1.6834639 0.5573834 1.0875013 1.0304503 0.53228176 -0.24952 -0.137302
관련 -0.13653278 -0.06596786 -0.53984314 0.68667454 -0.011796504 0.014853724 0.052882146 -0.083713226 -0.0721603 -0.4305792 0.2735436 0.04272788 -0.17517646 -0.41870648 -0.3966087 -0.39857602 0.3070553 -0.14377393 -0.5748423 0.5628207 -0.46483466 -0.12728976 -0.6277258 -0.24451934 0.42085055 0.23480071 0.1528668 0.091402106 -0.053064015 -0.11423942 0.16548322 0.36252835 0.21621838 -0.10987027 0.53594697 -0.1840166 -0.41689262 0.5742165 -0.32907233 0.21047325 -0.17373063 0.41514266 0.053259905 0.2774102 0.6988645 -0.11338306 0.099717 0.08077698 0.3104422 -0.13509317 0.26652506 0.067323886 0.043292414 0.46193868 0.4988799 0.047394276 0.11641493 0.048629932 0.20900732 0.0047968766 0.184699 0.14262474 -0.023624709 0.002093593 0.52872247 -0.54890865 -0.6484373 0.23713619 0.22685607 -0.25919735 0.37100163 -0.16309182 0.61470366 -0.37235358 0.3611613 -0.030194603 0.00600908 0.113672286 -0.22754292 -0.17494841 0.5795824 -0.23052664 -0.16507918 0.120430656 0.4821153 -0.83015084 0.2606841 -0.60080624 -0.26869354 0.09501011 0.2780109 -0.18290344 -0.07237411 -0.2973734 -0.20076801 -0.09162759 0.297278 -0.36463514 -0.52668536 -0.16521598
전종 0.51249295 -0.7601404 -0.04182426 0.40491864 -0.84992576 0.60006374 0.42370906 0.16464464 -1.2255349 0.2589494 0.5163511 -0.30425507 -0.3910996 -0.091751054 -0.019794326 -1.1871376 -0.10236275 -0.44055343 -0.6362958 0.0969775 -0.10078331 0.37338385 0.13610795 0.15983953 0.015426625 0.39447826 -0.55598503 0.47884825 0.72257316 1.1728245 -0.54455525 -0.45361114 -0.27106544 -0.0234279 0.3590011 0.7945862 -0.94883555 0.88312143 0.2664977 -0.5475702 -0.8149551 1.0929118 0.13966304 -0.21693143 0.9226821 0.10733877 -0.8840838 0.67890763 0.7707151 1.4242715 1.2081488 0.5009682 -0.09697327 -0.07384694 0.63310033 0.8213787 -0.51691914 0.6345914 0.8029692 0.14340629 -0.02297764 -0.82816523 -0.4804252 1.2912916 1.014174 -1.417333 0.29922506 -0.16405794 -0.36664978 1.1318187 1.0554764 0.19496712 0.5168185 0.2985201 -0.018173426 -0.13875285 0.17610553 -0.33340308 0.085129574 -0.6698703 -0.018383149 -0.36484745 -0.22496487 0.7992804 0.5943172 -0.033517245 0.56550616 0.85592836 -0.28589717 -0.62645686 -1.2600757 0.1497684 -0.116037585 -1.6997063 -0.8054733 0.4867589 0.08548714 0.27106568 -0.57505393 -1.0131756
한효정 0.24661227 -0.406317 0.1942768 0.19294241 -0.40847325 0.5091479 0.38340294 -0.013684364 -0.76830906 0.0061993753 0.41397738 -0.15776671 -0.31692562 -0.39327478 -0.33510908 -0.53717655 0.2772472 -0.36881375 -0.39870402 0.3035489 -0.15756118 0.058991544 0.22397685 0.022983598 0.039225064 0.40185544 -0.2432523 0.25330997 0.15238968 0.62063307 -0.28499538 -0.23290235 0.095608205 0.064391 0.4140811 0.22830844 -0.598044 0.19822317 -0.029874522 0.17022777 -0.45825416 0.3545072 0.23477295 -0.38704717 0.7940174 0.042899262 -0.18455735 0.17001471 0.5633557 0.81416005 0.4617045 0.19605963 -0.08214361 0.121482976 0.63248855 0.35567787 -0.021099497 0.33694246 0.2455414 -0.20189424 0.183018 -0.7181872 -0.2976649 0.7015234 0.62758344 -0.5588385 0.037473004 0.09576654 -0.21313135 0.37919652 0.88942254 0.27301943 0.14673607 0.21517183 0.070395455 -0.0681475 -0.049960196 0.14871515 -0.19451962 -0.5823581 -0.0015932136 -0.386522 -0.19470026 0.3956152 0.36971322 0.15342695 0.4173622 0.23542109 -0.082515456 -0.48708603 -0.4082084 0.2009624 -0.15710394 -0.9877556 -0.3212456 0.14645724 0.21509151 -0.034103002 -0.28123096 -0.48871806
오늘 0.17314388 -0.14517091 0.9482021 0.21386777 -0.65696204 0.39898044 0.48622918 0.44641936 -0.38160044 0.25861803 0.50454855 -0.44234878 -0.15657441 -0.45639303 -0.455589 -0.44207755 0.5423305 -0.17968199 -0.06445507 0.40754187 0.06338472 0.27193594 0.20144531 -0.12184478 -0.30864727 0.370819 0.009654791 0.24664119 0.15817076 0.6286944 -0.29229864 -0.22484085 0.24317862 -0.14689457 0.025349295 0.44355607 -0.28572536 0.11179097 -0.07254875 0.20847124 -0.0022175168 0.18869612 0.2636521 -0.69909465 0.8570474 0.34371245 0.1301031 0.20106663 0.9924635 0.47807807 -0.057156757 -0.45774624 -0.27515462 0.05075485 0.38985878 0.1684755 0.3471654 -0.06527183 -0.35689676 -0.14741005 0.40234786 -0.18342958 -0.19833544 0.87590665 0.60887486 -0.45021966 -0.4073593 -0.04814009 0.06734661 0.42291617 0.36403698 0.1271869 -0.10991167 0.47117195 0.19973987 -0.5014435 0.2863463 0.5449403 -0.7980751 -0.44572812 0.07466513 -0.6177207 -0.27297148 0.37257046 0.13316917 0.252017 -0.01975671 -0.048837934 -0.08799269 -0.4244075 -0.65005666 0.20664959 -0.5349427 -1.1176475 -0.24831471 0.12823847 0.4932624 0.5580156 -0.28860548 -0.262613
선배 0.131664 -0.75962085 -0.43969798 0.9181854 -0.3143334 0.24941209 0.04880016 -0.15164559 -0.0418645 0.14375791 -0.079235956 0.55810314 -0.51134884 0.46536204 0.23332301 -0.5758094 -0.853101 -0.07566612 -1.0697895 -0.049104888 0.2144933 0.07094014 0.13528714 -0.42504454 0.49493507 -0.13168985 0.07326367 -0.061802264 0.4735177 0.6910108 -0.52138525 0.29740903 -0.5223453 0.08286824 -0.1539048 0.48946425 -0.13214628 1.1080037 0.37539852 -1.5023199 0.038170736 0.43765095 0.47459623 -0.01854213 0.55654603 -0.76489943 -0.24341473 0.35292307 -0.37890068 0.15063511 1.4185092 0.19201636 0.6358666 0.043648627 0.48841807 0.120178096 -0.41624087 0.25770628 0.82697517 0.56093675 -0.19083674 -0.6913529 0.1870812 0.9071139 0.26461655 -1.153794 -0.3099614 -0.23124324 -0.46116826 0.4184518 0.30120745 -0.7095895 1.2010807 -0.40520036 0.17167763 0.035561346 0.4076819 -0.550692 0.22458337 0.33253947 0.2528184 0.32456988 0.067865655 -0.120755576 0.2930038 -0.93510133 -0.16475226 0.06542105 0.0067481957 -0.06451155 -0.8125338 -0.39237455 0.5710208 -0.5940028 -0.48303416 0.36268613 0.02272027 -0.32476202 -0.55466264 0.30858624
바라다 0.0021047017 0.23904765 -0.41838098 1.0165755 -0.41924405 -0.43662322 -0.15624872 -0.1480432 0.3668682 -0.17027025 -0.07446469 -0.18405646 0.20936753 -0.26020336 0.1728424 -0.4803975 0.076985896 -0.20178664 -0.7174757 0.4843678 -0.14987509 -0.15604086 0.13153332 -0.48767543 0.5389913 0.0046363333 0.6380901 -0.18231824 0.470981 -0.032044988 -0.24032943 0.33522254 0.21721047 -0.75827605 0.3422159 0.109951325 -0.3494562 0.66042286 -0.8132116 -0.45959744 -0.056976628 0.051012155 0.25678673 0.50003463 0.8725889 -0.34138978 0.42366672 -0.32393605 0.11069588 -0.48835227 -0.014001128 -0.055560842 -0.056563728 0.060162496 0.6987025 0.028825417 0.39725685 0.04968359 0.17048517 0.4891175 0.35573503 -0.03867117 0.06401584 -0.01645173 0.14373222 -0.71300066 -0.5193573 -0.092207246 0.24469945 -0.30054468 0.2770876 -0.5600397 0.7553035 -0.1491688 0.6381896 0.18108362 0.62752855 0.1032385 -0.87238747 0.08069876 1.0964133 -0.4271996 0.6841462 -0.28834906 0.29612404 -0.66206646 0.014334838 -0.4052439 0.26682994 0.4764123 0.052701402 -0.7201862 -0.87641376 -0.61537826 -0.18962197 -0.14269494 -0.070050776 -0.53334874 -0.347331 0.34345567
받다 -0.02681957 0.09528232 -0.16149786 0.8186269 -0.31830004 -0.18930197 0.10777755 0.11577829 0.34481493 -0.018240876 0.14025567 -0.18234575 0.03916466 -0.16303085 -0.087356456 -0.36793607 0.1789241 0.11084897 -0.48786175 0.453035 -0.09085596 0.027864475 -0.16706294 -0.3829096 0.2595198 0.051560447 0.43645754 -0.00814382 0.21801701 -0.025405243 -0.10100787 0.36654687 0.03392597 -0.47682697 0.089091584 0.20494471 -0.12881495 0.6511722 -0.2385389 -0.21804327 0.1692633 0.10818086 0.083003014 0.1462601 0.6509715 -0.10980745 0.3716884 -0.05373121 0.32616562 -0.5058515 0.030723576 -0.39964432 0.03781514 0.17689529 0.36300758 -0.081515945 0.3396009 -0.2898609 -0.02473228 0.39268738 0.31497654 0.25302187 0.056959473 0.18319523 0.23071846 -0.48286527 -0.6877613 -0.103108 0.24430554 -0.09672439 0.034555685 -0.54938155 0.5837955 -0.13589245 0.55013657 -0.11604953 0.48964164 0.16204733 -0.75082827 0.07434358 0.75476235 -0.22603494 0.23538211 -0.13838254 0.26171657 -0.5963531 -0.21989328 -0.4554645 0.07915646 0.27363056 -0.11848521 -0.4275067 -0.4005242 -0.52994955 -0.31105286 -0.07285229 0.17562585 -0.10489933 -0.3807621 0.2795273
조 -0.024229553 -0.55497116 0.07673692 0.29155535 -0.41817477 0.54633164 0.46597275 0.1211668 -0.72513545 -0.03335332 0.5937981 -0.057170734 -0.46782172 -0.1874 -0.28771886 -0.69691503 -0.048479263 -0.355469 -0.7466226 0.43094906 -0.23595595 0.11723421 -0.028415924 -0.1175899 0.099764 0.15968348 -0.11563174 0.20256041 0.2482441 0.60899824 -0.30869207 -0.22853872 -0.082974695 0.19006369 0.19517784 0.16958125 -0.5346614 0.3952716 0.1529599 -0.12078065 -0.27779993 0.5179314 0.29961154 -0.2579268 0.91633785 -0.060698934 -0.42663345 0.20161887 0.42172757 0.8584822 0.8304471 0.41397676 0.148031 0.14329752 0.62241626 0.38621065 0.082224846 0.38335887 0.22716027 -0.013732221 0.21583599 -0.7102845 -0.27825493 0.8258256 0.6105486 -0.7969308 -0.06248046 -0.03939357 -0.2391557 0.5305303 0.7924849 0.05824379 0.3591919 0.0066327513 0.031231487 -0.14154461 -0.08155327 0.0599322 -0.039619327 -0.5060312 -0.037125148 -0.37941933 -0.34175175 0.35320935 0.49722913 -0.1773778 0.26963925 0.30025014 -0.19570117 -0.52528393 -0.49012688 -0.030775325 0.11897573 -0.98451996 -0.33821645 0.39147183 0.36671266 -0.09686525 -0.31624654 -0.49498376
개발 -0.25251248 -0.14675248 -0.5926919 0.36344597 0.038756542 0.6528409 0.14906025 -0.02106645 -0.4261975 -0.6545877 0.85743445 0.11935056 -0.415878 -0.26603785 -0.6967059 -0.34595886 0.05699826 -0.20256941 -0.5929704 0.66097504 -0.60668385 0.06585312 -0.7577201 -0.13490312 0.27672744 0.13079785 -0.04630465 0.38685614 -0.35269636 0.02371682 0.286411 0.39034215 -0.091824695 0.44804934 0.41030273 -0.07839849 -0.640831 0.5380758 0.0039227456 0.4736975 -0.26101857 0.9497471 -0.22780634 0.26547 0.76250976 0.1375042 -0.39343068 0.22456846 0.6742765 0.098580904 0.5951029 0.19463304 0.043325268 0.6667444 0.521691 0.21420397 0.18848169 -0.0027252063 0.14961036 -0.097799644 0.055578582 0.04642198 -0.024762098 0.13066356 0.7203442 -0.3965292 -0.47725523 0.20076169 0.20191336 0.11717786 0.4727158 0.02580521 0.5073351 -0.5969238 0.27737883 -0.27198395 -0.48281384 0.16933087 0.24102522 -0.36336622 0.2944709 -0.013649155 -0.7851086 0.23861006 0.5455051 -0.6445426 -0.0063944673 -0.41020283 -0.4298822 -0.32420206 0.45488295 0.03305613 0.45544982 -0.37327713 -0.53331965 0.2413247 0.43303385 -0.1760914 -0.5483771 -0.5261239
한동 0.02594994 -0.42680484 -0.50663453 0.7501628 -0.1281101 0.22541162 0.14856842 -0.17127845 -0.18849227 -0.34983614 0.12963551 0.1971531 -0.3414039 -0.22549531 -0.272805 -0.5156697 -0.054510407 -0.2380383 -0.7173261 0.30399477 -0.31805122 -0.058956485 -0.22711968 -0.13610649 0.3666819 0.3234085 0.08436865 0.18509462 0.19669512 0.29688543 -0.14736521 0.16902821 -0.01760781 0.016767412 0.42042288 0.034440354 -0.5207321 0.63931096 0.020010913 -0.22866821 -0.25486118 0.48623568 0.31251016 0.058238577 0.6498507 -0.2802652 -0.13835259 0.20537741 0.06959973 0.3182415 0.7168725 0.34672812 0.2183682 0.36262035 0.60457677 0.1818215 -0.02630935 0.21971934 0.5294566 0.20990026 0.08164788 -0.51071143 -0.19629842 0.34728143 0.5556973 -0.70488125 -0.29762512 0.094062276 -0.18267843 -0.030072143 0.6436049 -0.133095 0.6652552 -0.40969682 0.14881717 0.06802458 0.028855842 -0.1482844 0.02239157 -0.19717239 0.39242738 -0.10280107 -0.15665461 0.17053738 0.5054509 -0.6421952 0.25396717 -0.23514332 -0.19417045 -0.08918332 -0.12688339 -0.20024708 0.17104705 -0.54290855 -0.27913162 0.13749868 0.15289047 -0.41943932 -0.50266093 -0.16423434
위 -0.082941614 -0.20290874 -0.645535 0.797471 -0.04959094 0.0054601817 0.09790594 -0.091626085 0.06949027 -0.35323685 0.2050521 0.15653968 -0.23056766 -0.2282796 -0.2730522 -0.41662008 0.09726276 -0.04197898 -0.6853358 0.45145682 -0.37194204 -0.06978316 -0.4958973 -0.2561446 0.4549539 0.17962117 0.21697389 0.109398335 0.051058937 -0.02258332 0.048757087 0.3728953 0.023892434 -0.10115901 0.37835163 -0.0798791 -0.3865583 0.7470311 -0.076424226 -0.15366521 -0.10379669 0.46163568 0.08012926 0.30478594 0.63462365 -0.22471091 0.03225042 0.086531855 0.15662408 -0.14932953 0.4992285 0.10015378 0.17829625 0.4398148 0.4994879 0.042519934 0.064293526 -0.031269576 0.32630098 0.25176105 0.13212246 0.008365001 -0.029255174 0.09933107 0.45549116 -0.60764265 -0.6172776 0.104405575 0.074382976 -0.15615134 0.3333569 -0.34449568 0.7767238 -0.46814856 0.3487031 -0.0179801 0.109730706 -0.017416086 -0.18849292 -0.03175978 0.59841466 -0.0741369 -0.08351171 0.054124903 0.5064356 -0.902987 0.0748211 -0.5151647 -0.22656246 0.13127689 0.07561057 -0.28152138 0.08259623 -0.33317992 -0.28426102 -0.0033818765 0.21849258 -0.40372872 -0.5450845 -0.00042710986
